RESERVED,-0.0001618173,-0.041004576,-0.055867903,0.00939941,0.0061612483,-0.02158358,-0.02053565,-0.04818213,-0.016542863,-0.014185607,-0.053283133,0.03696983,-0.05304463,-0.009960331,-0.05247457,-0.030254746,0.0076304562,-0.052377343,0.013436984,0.0027527716,-0.00067842007,0.07802788,0.06003931,-0.042227793,0.028990235,-0.01112232,0.056214266,-0.031437743,-0.0065928586,-0.0011009462,-0.032067858,0.0024633668,0.075160876,0.02188506,0.006056115,-0.029264022,0.018116232,-0.03497567,-0.02361647,0.007337317,0.07079367,0.04137832,-0.003018083,0.022640612,0.003221441,0.05502037,0.042818584,0.08116776,-0.04453012,0.026874166,0.0028728023,-0.03529948,0.06495447,-0.009376582,-0.05483227,-0.08371414,0.0008578785,-0.05103711,0.09062919,0.06068875,-0.0043216944,0.044483792,-0.003110947,0.035054542,0.011252381,0.056772254,0.0124835875,0.054054964,0.061689675,0.0034011267,0.012758747,-0.058202527,-0.0068255067,-0.0755195,-0.08882463,0.01963798,0.04306759,-0.029044308,-0.03896346,0.044382326,-0.025176786,0.013113884,-0.0031864531,-0.010138178,0.04356239,-0.046730246,-0.04312694,-0.021760881,0.004595589,0.018835656,-0.07151955,0.009669891,-0.06517645,-0.026874496,-0.031843506,-0.015330326
UNK,-0.67587256,0.415528,-0.6005182,-0.5698004,-0.6782875,0.34945357,-0.7663524,0.7980184,-0.49299765,0.6333158,0.575006,0.77495056,0.88096637,0.61386895,-0.65510035,0.689675,-0.644056,0.59520894,-0.52840364,-0.6307796,-0.82406735,-0.5740405,-0.8620285,-0.6681611,0.45770073,-0.6623863,-0.7528064,-0.6752659,0.9120521,0.6292485,0.7508056,0.64256173,-0.68098426,-0.6635872,0.80124307,-0.8419384,0.6612577,-0.61225075,0.65946496,-0.5638276,-0.80400705,-0.6398588,-0.5082195,-0.62502813,-0.8012775,-0.6504488,-0.6771196,0.6036249,0.839818,0.7633464,0.6058821,-0.7415275,-0.70663863,-0.60596156,0.77530324,-0.5207858,-0.6885691,-0.75180787,0.7630072,-0.5669171,0.7377359,-0.44404754,0.75766385,-0.78685415,0.7844881,0.6607126,-0.54559404,0.7410468,0.72688174,0.54597646,-0.7348466,0.69626343,0.2479351,0.7575954,0.4952544,-0.3889359,-0.6205403,0.6941613,0.8602736,0.75007796,-0.5959102,-0.83764803,-0.7165692,-0.60741293,-0.6504922,-0.6967071,-0.75737196,-0.62814945,0.5924751,-0.54273283,-0.5880265,0.46532366,0.7250948,-0.63227475,0.6359278,0.37730575
the,-0.7559984,0.73134977,-0.31805456,-0.708608,-0.6663932,-0.6099623,-0.22801176,0.5690595,-0.8234982,0.6538935,0.6754192,0.8759233,0.47229353,0.39211705,-0.61072236,0.6089755,-0.84525657,0.7005285,-0.68448436,-0.7929945,-0.88102937,-0.47520518,-0.61524767,-0.14534473,0.22949201,-0.8339774,-0.7009028,-0.5193809,-0.08909674,0.5435004,0.8553709,0.93436605,0.14540064,-0.41049108,0.89211756,-1.0920153,1.034022,-0.7928305,0.68995,-0.7606301,-0.75373304,-0.8433614,-0.67006975,-0.7031313,-0.57577085,-1.0242707,-0.6325874,0.6198975,0.69706976,0.44335267,0.8662801,-0.43365532,-0.7249721,-0.7605897,0.6573966,-0.821496,-0.5463536,-0.74601924,0.5055014,-0.6612104,0.7309227,-0.89393634,0.64379966,-1.0355821,0.75985676,0.6478311,-0.93261385,0.16021153,0.70646006,0.58113575,-0.5238711,0.40139085,0.39494616,0.91456807,0.47475845,-0.76843,-0.6092749,0.59971035,0.57744837,0.406303,-0.08888513,-0.69460016,-0.8108955,-0.74610084,-0.6230577,-0.905537,-0.92985106,-0.5834197,0.5848158,-0.39862084,-0.62837267,0.27545768,0.7184646,-0.67465305,0.4852006,0.62491786
to,-0.6431651,0.6051695,-0.5892731,-0.698662,-0.23492604,0.47382826,-0.60460865,-0.121733844,-0.70335853,0.8072909,1.0487845,0.9286577,-0.04387486,0.56104136,-0.06420007,0.6237834,-0.9704901,-0.07043311,-0.66206586,-0.36709577,-0.92006004,-0.27865398,-0.27368963,-0.9246969,0.8907263,-0.7595954,-0.7465349,-0.34976217,0.39457268,0.7203224,0.8146618,1.0373052,-1.1496254,-0.41553617,0.07743251,-0.87458646,0.47465396,-0.6250772,0.70580935,-0.43645638,-1.0094185,-0.09693278,-0.7678338,-0.7588215,-0.24535081,-0.65077686,-0.96687627,0.53404427,0.28785956,0.5946623,0.3491697,-0.8163391,-0.4680763,-1.2600701,0.80607057,-0.57011175,-0.7995369,-0.47523183,0.8071549,-0.31984288,0.9419158,-0.7989143,0.5100653,-0.9612552,1.1238301,0.9355508,-0.8332161,0.44422784,0.85176426,0.9219934,-0.56507593,0.19557716,-0.41174528,0.23900954,0.15221585,-0.64518994,-0.45246282,1.2516513,0.1027184,1.0508662,-0.79811335,0.568331,-0.63264644,-0.9282918,-0.3390904,-0.65278506,-0.7458713,-0.76594347,0.61347693,-0.42717046,-0.8531905,0.83849293,0.8503572,-0.32646123,1.2989776,0.6008032
and,-1.0202171,0.3772723,-0.27698034,-0.33765042,-0.6079216,0.17053999,-0.6039841,0.6523675,-0.4178043,0.60245764,0.745227,0.79189134,0.41143236,0.39373025,-0.35818946,0.50676954,-0.42359212,0.42344588,-0.542112,-0.5205279,-0.8318585,-0.68809485,-0.6455128,-0.6899449,0.6513944,-0.49666488,-0.6865364,-0.708223,0.8378799,0.54601914,0.56277764,0.4213754,-0.66747,-0.5159559,0.72625875,-0.58378357,0.5748357,-0.82629454,0.4462363,-0.44811213,-0.5178905,-0.34941182,-0.5428713,-0.45686263,-0.38450256,-0.5708519,-0.355281,0.31820428,0.7266893,0.85269856,0.46332735,-0.5554725,-0.9084867,-0.5804472,0.1320233,-0.56938356,-0.78937376,-0.8240107,0.85625184,-0.8099049,0.76074404,-0.456158,0.81719184,-0.8150971,0.58074117,0.53249043,-0.34424093,0.5962107,0.72700655,0.85458815,-0.86638093,0.4977766,0.4198311,0.7301223,0.48982185,-0.36720082,-0.630554,0.5217206,0.7479534,0.7170101,-1.0007222,-0.46819222,-0.5266476,-0.37992805,-0.6137532,-0.45747423,-0.5428486,-0.79746807,0.53105813,-0.45179534,-0.5110925,0.48285514,0.67740417,-0.6313984,0.9990723,-0.08997922
a,-0.78850496,0.48483324,-0.5853551,-0.51312375,-0.7639242,0.2889067,-0.93381584,-0.007521227,0.14463381,0.41130996,0.40908238,0.45529926,0.5094932,1.3282125,-0.57315665,0.37506706,-0.8808046,0.29981482,-0.054453105,-0.07552546,-0.65151095,-0.84865236,-0.48414898,-0.5492661,0.21873423,-0.31908447,-0.96085376,-0.3564947,0.92333126,0.58946276,0.98157585,0.6273303,-0.5638075,-0.08332425,0.42509258,-0.57411194,1.0071099,-0.26197988,1.0505646,-1.0058376,-1.094677,-0.7432854,-0.64750415,0.3139436,-0.5240027,-0.42954555,-1.0037069,0.9835403,0.77957594,-0.0037801862,0.7074541,-0.33208334,-0.69285977,-0.80388224,1.0921484,-0.6760454,-0.86832947,-0.5521928,0.73002577,-0.9239316,0.5660727,-0.1479031,0.55871916,-0.64056635,0.36425656,0.41571915,-0.21252435,0.4384201,0.7161261,-0.05729279,-0.20169187,0.8847319,0.47253528,1.3042686,0.9205264,-0.36157134,-1.125858,0.66077393,0.31389976,0.36462206,-0.10558818,-0.90531135,-0.7142796,-0.77969664,-0.5512507,-0.8813296,-0.957732,-0.85442054,0.51293254,-0.821632,-0.7479454,0.8588086,0.4726252,-0.2295892,0.37618086,0.11452001
of,-0.7648515,0.27705702,-0.9241376,-0.69078267,-0.86291325,-0.0975048,-0.46223,0.7150349,-0.6140056,0.98244023,0.35661438,0.8511425,0.6633493,0.06730526,-0.80223274,0.96778107,-0.75058436,0.38228172,-0.47356293,-0.29382667,-0.65298724,-1.013274,-0.47079968,0.4976067,-0.042088687,-0.43456957,-1.11471,-0.83639425,0.31613308,0.94040227,0.9405174,0.30765048,-0.033063233,-1.0120798,0.91437316,-0.99744743,0.8817437,-0.43196097,0.787646,-0.8350726,-0.9060282,-0.42996702,-0.55540884,-0.15643829,-0.8299561,-0.58375,-0.7782951,0.2823179,0.7353059,0.26959723,0.71389395,-0.95989543,-0.11395965,-0.87116385,0.4988914,-0.17719287,-0.38939425,-1.0638337,0.5568471,-0.5498589,0.76940304,-0.16198653,-0.3365515,-0.6847689,0.6653726,0.5630624,-0.31236017,0.4435478,0.5157803,0.3375339,-0.33001763,0.9895884,0.25766066,1.013103,1.0624673,-0.8888494,-0.021832824,0.38445058,0.0069131553,-0.2945665,-0.52967143,-0.88636446,-0.8878708,-0.687029,-0.45325944,-0.92377055,-0.62962633,-0.13418306,0.40220946,-0.33377022,-0.30077708,0.18723142,0.5799687,-0.8208377,0.41938686,1.0838815
is,-0.394043,0.6332672,-0.9117794,-0.6097005,-0.5517589,0.729933,-0.77323306,0.3653208,-0.42597723,0.8640298,0.845896,0.7220759,0.40316957,0.7293488,0.18490866,0.055927217,-0.49717546,0.632005,-0.117149025,-0.27081537,-0.83744586,-0.65063137,-1.3072503,-0.8655828,0.1694636,-0.4013322,-0.4928347,-0.5933212,0.65703535,0.5250517,0.5374708,0.35479236,0.00051219575,-0.68325347,0.59947115,-0.7677995,0.08603214,-0.5353015,0.23506486,-0.46154654,-0.88897985,-0.4599044,-0.31250536,-0.90468585,-0.41678223,-0.4892724,-0.25008425,1.0110652,0.74503005,0.7710427,0.8428402,-0.52868426,-0.56781745,-0.4421123,1.029318,-0.8578239,-0.6214608,-0.7133809,0.68923795,-0.8670826,0.7513637,0.37219274,0.649724,-0.4518308,0.30596173,0.82633734,-0.12470674,0.28913885,0.24799147,0.38019222,-0.7120253,0.7190051,0.90310764,-0.35683843,1.1799765,-0.2446346,-0.8681561,0.8921024,0.22230512,0.7871779,-0.1381089,-0.6870397,-0.13526379,-0.09427866,-0.5564625,-0.5327236,-0.64690876,-0.9044297,0.8772393,0.18571955,-0.8344034,0.049899023,0.427656,-0.27472985,0.41633454,0.73878604
in,-0.7861822,0.5656686,-0.7273024,-0.57861686,-0.885446,0.75496143,-0.63387,0.22486484,-0.39206514,0.46799344,0.54311776,0.59782344,0.06526929,0.17073481,-0.69031745,0.6379645,-0.5307375,0.8174555,-0.47502768,-0.90531254,-0.64773774,-0.88875175,-0.42861038,-0.1625884,0.077856764,-0.5084471,-1.1682339,-0.6586182,0.57472974,0.71392316,0.9325485,0.41789672,0.44228637,-0.008952081,0.87169874,-1.0539371,0.41322106,-0.5357421,0.36050153,-0.30551118,-0.69397277,-1.1313452,-0.5297738,0.14660364,-0.46989936,-0.17001271,-0.9585288,0.81702995,0.4995867,0.4021472,1.0572016,-0.20135416,-0.9479704,-0.4485068,0.74794954,-0.8160819,-0.702094,-0.36380348,0.9784804,-0.56451815,-0.27323094,-0.2180405,0.14567597,-0.51070714,0.6981617,-0.014613375,-0.8352622,0.60031044,1.0974491,0.5692472,-0.73109514,0.4095358,0.8141892,0.91944265,-0.13893887,-1.0333618,-0.66678464,0.48293057,0.20783018,0.6137735,-0.29530728,-0.47248322,-0.47582898,-0.4866605,-0.8998786,-0.46288085,-0.4097269,-0.5620452,0.7108847,-0.29319075,-0.55390084,0.73672444,0.47954577,-0.28562367,1.0416656,0.9123626
his,-0.7603788,0.5130779,-0.1131218,-0.4404352,-0.6412592,0.54295754,-0.9518455,0.8032191,-0.20411919,1.2357665,1.1810561,0.78542984,0.08079437,0.18814388,-0.41398472,0.6078259,-0.53909516,0.3109348,-0.43952206,-0.8616468,-0.5336791,-0.74995816,-0.71126235,-0.30585247,0.39774424,-0.8837638,-0.35533425,-0.901373,0.87265337,1.039039,0.61480665,0.32615465,-0.30363235,-1.0278306,0.8076923,-0.15854442,0.25546107,-0.17145465,0.7158787,-0.009756714,-0.42086032,0.33457136,-1.0072691,0.30813348,-0.8395796,-0.3065536,-0.42977536,-0.28193367,0.45660174,0.63808775,0.63971555,-0.34813935,-0.60744554,-0.696178,0.8365818,-0.034347266,-1.071252,-0.68310815,0.7574217,-0.57016456,0.8708228,-0.64406264,0.0021873843,-0.9197479,0.66592526,0.89619434,-0.71919084,0.7803352,0.69684386,0.6742085,-0.4601901,0.82878,0.76849806,0.27455848,0.52960974,-0.54274344,-0.43938258,0.39568955,0.6857118,0.26640448,-0.7970599,-0.25608945,-0.4190187,-0.27844787,-0.8996489,-0.53760326,-0.552345,-0.5939285,0.6281594,-0.8816402,-0.9237479,0.5424492,1.029571,-0.9759147,0.5356021,0.32133827
he,-0.24379301,1.0885934,0.030455174,-0.29933238,-0.21516906,0.61033595,-0.65529096,0.4534397,-0.22967853,0.7195481,1.1132244,0.6104095,0.4534342,0.9411808,-0.303826,0.5205361,-0.3036948,0.06720291,-0.6810905,-0.8691609,-0.32940048,-0.5028274,-0.60230976,-0.8084861,0.62479806,-0.74562085,-0.2812569,-0.7292943,0.79482687,1.0257702,0.7642963,0.44944835,-0.5017876,-0.8500689,0.25720644,-1.0058627,0.8668694,-0.8898246,0.24400151,-0.57112944,-0.76286405,-0.5305468,-0.47731084,-0.24387102,-0.36959565,-0.7670533,0.10915439,0.18638375,0.69501543,0.5121005,0.6718299,-0.061909273,-0.6084329,0.4060553,0.9601501,-0.41395396,-1.0510125,-0.5583919,0.64114565,-0.6829704,0.87862533,-1.0138223,0.79381585,-0.2257488,-0.019593284,0.5204141,-0.7449352,0.7932023,0.41662472,-0.09342821,-0.4628168,0.31364816,0.5796218,0.14166574,0.444559,-1.0910726,-0.9286796,0.57343376,0.5238792,0.8448199,-0.7227293,-0.6128571,-0.88281524,-0.0972389,-0.6855421,-0.56653535,-0.3692264,-1.1578714,0.39665386,-0.4809723,-0.9384754,-0.05104646,0.588152,-0.8392317,0.4568386,0.5886229
her,-0.94144404,0.4294554,-0.833406,-0.86412954,-0.49760342,0.7210516,-0.59949875,0.61884916,-0.47334614,0.68707013,0.5105354,0.60703254,0.11857548,0.58487236,-0.27607033,0.46581447,-0.71217227,0.5215677,-0.6331193,-0.53397393,-0.56768894,-0.8724744,-0.43764672,-0.3174904,0.6934938,-0.25254548,-0.46050197,-0.26026472,0.9397807,0.8385688,1.3676543,0.33831838,-0.71673703,-0.75819725,0.7088506,0.08436145,0.7638886,-0.3537277,0.025212541,-0.431382,-0.607106,-0.50604904,-0.5378933,-0.17066641,-0.22521228,-0.75066304,-0.19756037,0.5741439,0.6985798,0.6884318,-0.49031946,-0.6909778,-0.38660276,-0.4623431,-0.035347134,0.045685858,-1.0257176,-0.86714417,0.6246674,-0.08199429,1.0220785,-0.8268891,0.29524115,-0.03427738,0.14307363,0.5562981,-0.5441653,0.20695692,0.81954515,0.8054035,-0.26259238,0.6287392,0.7629278,0.26331115,0.64792776,-0.8433997,-0.6486968,-0.001799807,0.65274775,0.91591597,-1.3444121,0.13201024,-0.59275854,-0.026177585,-0.69743264,-0.6458204,0.40016505,-0.8695672,0.886365,-0.5995934,-0.7023777,0.72058743,1.0646248,-0.64357126,0.94083595,0.62431395
's,-0.7330259,0.08311722,-0.6792118,-0.4463734,-1.023718,0.07103568,-0.50849503,0.91188467,-0.15468824,0.77103126,0.4240344,0.77297163,0.35564637,0.6268063,-0.13661733,0.88014257,-0.27532935,0.76995367,-0.69094,-0.38832325,-0.685183,-0.31197837,-1.1454037,-0.3745193,-0.058992267,-0.20201673,-0.757555,-0.4177453,0.4720047,0.8497833,0.33454862,0.72962415,-0.06880146,-0.3748409,0.61318487,-0.55135864,0.62736654,-0.051146127,0.5482681,0.0076245964,-0.5199644,0.17404178,-0.79234767,-0.21631593,-0.75183,-0.6188107,-0.592948,0.25259912,0.8471656,0.8598037,0.35623553,-0.5883371,-0.7697346,-0.6042155,0.046696022,-0.15114805,-0.72905713,-0.8022819,0.65073633,0.11288424,0.9465065,-0.18868978,-0.107647024,-0.7446845,0.58167464,0.6497942,-0.2891684,0.8238167,0.48388132,0.31986678,-0.95741475,0.83274287,0.46879306,0.039204985,0.7134729,0.3113525,-0.26432908,0.71854246,0.69311464,0.8707391,-0.7261555,-0.41904122,-0.22484523,-0.45256513,-0.39282295,-0.16855904,-0.4216279,-0.9409113,0.61013913,-0.20544165,-0.57186615,0.27777207,0.94823164,-1.3230227,1.1914947,0.34242445
that,-0.6186387,0.4871209,-1.1995411,-0.5800396,-0.19965723,0.513217,-0.8631782,0.9442531,-0.47453648,0.33574522,0.9951743,0.93459845,0.6138022,0.67247707,-0.2545131,0.07434066,-0.6504965,0.60027087,-0.53405654,-0.5376817,-0.686057,0.25098065,-0.41514993,-0.36888027,0.8446147,-0.15923496,-0.23337668,-0.71543837,0.6303779,0.51981556,0.42437726,0.5015587,-0.55023956,-0.30685875,-0.24708566,-1.1098197,0.7021046,-0.44940913,0.53243,-0.75600386,-0.74909925,-0.6290848,-0.44147435,-0.73857963,-0.11200526,-0.6471766,-0.051712185,-0.31027102,1.03655,0.7287096,0.82812464,-0.42477518,-0.28737742,0.6777065,0.29529476,-0.16755128,-0.59438056,-1.1452932,0.8387983,-0.46623963,0.8150552,-0.77879524,0.4390399,-0.4994788,0.042943656,0.32653847,-0.48124993,0.46532327,0.2423366,0.19154964,-0.94066715,0.486956,0.77797806,-0.3910028,0.924436,-0.81253445,-0.61436796,0.85331166,0.51339,0.6923286,-0.45228,-0.69375527,-0.9148436,0.13228074,-0.31674397,-0.96954393,-0.75745666,-0.77550745,0.38559824,-0.34070265,-0.719411,-0.11530316,0.14567384,-1.1008961,0.5757184,0.7373427
with,-0.6572599,0.26191565,-0.58129925,-0.70782954,-0.6484059,0.80930114,-0.48316765,0.43709707,-0.6544387,0.32154027,0.59791577,0.34056628,0.03985554,0.7507493,-0.3996929,0.5485114,-0.3440315,1.0002617,-0.10472758,-0.56523293,-0.5577069,-0.45817214,-0.28885466,-0.35524246,-0.0891266,-0.3523048,-0.83261,-0.40793526,0.6980023,0.75162065,0.40931338,0.19574903,-0.65907735,-0.63487905,0.8558976,0.039671436,0.9137692,-0.28418052,0.473752,-0.075348616,-0.84418344,-0.8839913,-0.14957061,-0.43814814,-0.17511253,-0.60027707,-0.39893287,0.7041363,0.24284077,0.38181674,0.4923197,-0.47530723,-0.8140973,-0.6745056,0.58516675,-0.4570626,-0.9566834,-0.97867393,0.31507266,-1.1103667,0.3949402,-0.5367092,0.49205202,-0.783854,0.50735176,0.9636661,-0.39538282,0.9527248,0.6597187,0.6316633,-0.505167,0.6586994,0.92022306,0.6707018,0.16884643,-0.15730391,-0.4132012,-0.20805873,0.3039846,0.32728702,-0.6621204,-0.8731793,-0.055359587,-0.73647034,-0.5750257,-0.5412932,-0.85966474,-0.67108977,0.40997985,-0.61398625,-0.43600038,1.2527251,1.0007656,-0.80707943,0.78869855,0.29339272
him,-0.446836,1.2176387,-0.7028195,-0.449589,-0.19254723,0.6645602,-0.7909137,0.7484564,-0.54043067,0.6904514,0.65786827,-0.26583523,0.07248452,0.46747422,-0.372086,0.17641023,-0.7872416,0.24677642,-0.6454786,-0.5120947,-0.73629856,-0.63827455,-0.0061409995,-0.8171598,0.881016,-0.8526957,-0.024544694,-0.16274315,0.70563823,0.5270369,0.614823,0.47228095,-0.6070925,-0.90468585,0.68880045,-1.0795221,0.561092,-0.9412379,0.5056925,-0.40098423,-0.47106203,-0.27863532,-0.68629825,-0.65535474,0.0858354,-0.24213195,-0.2748749,-0.17220403,0.103883445,0.47310716,-0.4285938,-0.63964224,-0.407024,-0.3261072,0.5229189,-0.65537053,-1.0613892,-0.9121351,0.88209534,-0.24149679,0.7495036,-0.64398926,0.91981953,-1.0889398,-0.1314873,0.027150244,-0.8255475,0.03427665,0.67611897,0.7122021,-0.040548414,0.33119783,0.48038605,0.4654335,0.35640237,-0.32357687,-0.6504058,0.17670673,0.5330968,1.1179786,-0.82908195,-0.23045605,-0.85002506,-0.41602442,-0.4841197,-0.6180779,0.042807817,-0.5222496,0.1498492,-0.74513966,-0.4230286,0.95133966,0.586163,-0.7578484,1.0944746,0.3446381
she,-0.41955203,0.75250417,-0.43826973,-0.60301757,-0.14997086,0.7462559,-0.41472387,0.55279183,-0.14000896,0.2524657,0.8472029,0.38308653,0.4935554,1.005002,-0.24109748,0.3619925,-0.47858012,0.59446937,-0.7071481,-0.309885,-0.5603698,-0.4092024,-0.6027974,-0.6044626,0.71291775,-0.5112711,-0.3448477,-0.44277763,0.7808704,0.9209936,0.9666544,0.4195544,-0.5491259,-0.60407877,0.20048638,-0.5457119,1.0825981,-0.7907609,-0.096539825,-0.668456,-0.8255125,-0.74893373,-0.2533179,-0.49213666,0.029042013,-0.81650543,0.213608,0.8035909,0.7200197,0.54200554,0.08872544,-0.3358694,-0.530544,0.3946615,0.5013953,-0.32606068,-0.9898739,-0.74234486,0.6260134,-0.47044095,0.91633785,-0.90364957,0.7873596,0.09980781,-0.2585423,0.023481801,-0.44224292,0.57837844,0.54328126,0.007097222,-0.43338823,0.3234448,0.73366797,-0.1994928,0.30129412,-0.9434576,-0.9143589,0.4333918,0.7313377,1.1032624,-1.0557883,-0.39962617,-0.9036851,-0.0033625215,-0.55641365,-0.7054628,-0.003363885,-1.0214431,0.67107064,-0.48850447,-0.6791316,0.18973464,0.5226653,-0.8365877,0.69499546,0.7250931
for,-0.12064934,0.15605652,-0.46768078,-0.4749124,-0.24426581,0.67306095,-0.51589173,0.58413255,-0.4098438,0.715014,0.33119148,-0.1670947,-0.14351702,0.25124377,-0.13606735,0.54533595,-0.73311555,0.76873183,-0.544613,-0.8030296,-0.45450366,-1.0163192,-0.94020414,-0.34830967,0.469392,-0.8482183,-0.20213103,0.7724678,0.7769872,0.45435983,0.29843503,0.7768583,-0.4771577,-0.5909875,0.9644122,-1.0991931,0.26568645,-0.13839218,0.935254,-0.39279062,-0.6941589,-0.38395488,-0.9834944,-0.3956378,-0.5865038,-0.3513963,-0.36417252,0.7592938,0.09365176,0.20410721,0.02512312,-0.71379846,-0.4124869,-0.1204689,0.68824434,-0.61688626,-0.90615404,-0.6482612,0.7945546,-0.55324346,-0.13935691,-0.69113064,0.06361282,-0.3349657,0.33074775,0.87288946,0.11336115,0.42293587,0.7116134,0.899511,0.42045116,0.9970926,0.5575159,0.91577315,0.54955304,-0.6123568,-0.6045085,1.129993,0.45016152,0.5503917,-0.7292848,0.13733533,-0.44565043,-0.55318,-0.64511585,-0.8102849,-0.55168736,-0.27467352,0.589285,-0.58534384,-0.49773657,0.70094526,0.7466061,-0.5807916,0.16195095,0.6354609
by,-0.35494524,1.0144806,-0.83353734,-0.84771514,-0.5352194,0.7058655,-0.4669661,0.17549545,-0.7224369,1.2161393,0.7726772,0.42369664,0.39912283,0.37957668,0.36214817,-0.19355449,-0.7519195,0.6704645,-0.16687424,-0.4952626,-0.77132,0.10350046,-1.1213806,-0.66038334,-0.0342549,-0.2461794,-0.17337537,-0.36703643,0.7301862,-0.09742913,0.57096076,-0.09564683,0.44983694,-1.0482633,0.31511837,-0.109389484,0.09357778,-0.8002523,0.5892586,-0.8396852,-0.16370796,-0.7735894,-0.5884318,-0.29913223,-0.91160107,-0.76425266,-0.1833446,0.49045855,0.6479429,0.77030146,0.30773482,-0.74300766,0.039589986,-0.80484176,0.55510914,-0.59162724,-0.27022147,-0.622535,0.48790252,-0.49225193,0.90421045,0.6518337,0.7430314,-0.633119,0.9150561,0.7353249,-0.20236836,-0.063473195,0.037973166,0.5116242,-0.633824,0.48513317,0.7537938,0.81776345,0.88123775,-0.036001258,-0.5696211,0.44350207,0.73176515,0.2758063,0.1620816,-0.94586957,-0.48551133,-0.24011344,-0.9804846,-0.46425673,-0.40619916,-0.09727645,0.9436457,-0.1823243,-0.47127634,0.2736786,0.336347,0.2964471,0.7478131,0.1352799
as,-0.48663354,0.6534915,0.044324927,-0.8038051,-0.3344941,0.2425235,-0.79888666,0.84302604,0.05398941,0.4558004,-0.2861505,0.8978485,0.69035596,0.72680455,0.5894115,0.64483356,0.12890826,0.4898884,-0.6587937,-0.27060908,-0.20995042,-0.35206988,-0.43966544,0.43056315,0.22772153,-0.1492821,-0.7963888,-0.5169817,0.5675228,0.03208594,0.72198707,0.96508765,0.14759526,-0.7334473,0.903837,-0.43260348,0.715762,-0.8582723,0.8242913,-0.56141174,-0.77954483,-0.4920181,-0.86482465,-0.37778547,-0.47526866,-0.0600748,-0.767824,0.71348363,0.8170123,0.07350035,0.3091973,-0.6454896,-0.5760282,-0.64351803,1.1089379,0.028845727,-1.1013926,0.49516398,0.73282576,-0.73073006,0.57018435,-0.18036735,1.0392208,-0.08448778,0.30735436,0.6893082,-0.56399345,0.7464777,0.37464833,0.8189739,0.18149813,0.062931,0.5067822,0.48528934,0.53808165,-0.3507671,-0.73852557,1.0050758,0.8465236,0.48912084,-0.9553026,-0.6442205,-0.74233323,-0.24486092,-0.5253335,-0.54154146,-1.1136355,-0.8733815,0.48912925,-0.58649766,-0.6495664,0.78128076,0.25435227,-0.3888328,0.3956827,0.7528403
on,-0.956876,0.6024141,-0.7485447,0.092875555,-0.9282077,0.5119611,-0.09639427,0.51924694,-0.7009053,0.4945292,0.61952883,0.64191294,-0.036812976,0.6867543,-0.6239947,0.41023666,-0.6034074,0.7739668,-0.92108536,-0.46438485,-1.056818,-0.37048256,-0.14104174,-0.25750396,0.16390389,-0.35942113,-0.32475594,0.025363088,-0.27876502,0.4620893,0.68011683,0.37454218,-0.24302635,-0.5013687,0.57465374,-0.54679346,0.26426685,-0.7025981,0.6933682,-0.82869124,-0.44258115,-0.090346456,-0.5261421,-0.3376709,-0.5416659,-0.40341735,-0.60441154,0.4705737,0.77173597,-0.08907942,0.7048253,0.15876657,-0.63773316,-0.49212918,0.256666,-0.88445425,-0.96377003,0.6104009,0.37266847,-0.5353085,1.0040015,0.0043284744,0.61724234,-0.83499783,0.5431728,0.71245956,-0.4308729,0.43274397,0.5835719,0.28248715,-0.03223078,0.7910148,1.077746,0.39021206,0.4700749,-0.12209433,-0.37019777,0.26609588,0.1803411,0.3209307,-0.0509531,-0.12610102,-0.90489995,-0.34910676,-0.7877104,-0.79667103,-0.7408464,-0.70134735,0.7139456,-1.070343,-0.32207683,0.65404284,0.5362033,-0.61831415,0.12896731,0.5414473
they,-0.5304829,0.42611372,-0.63283324,-0.3307618,-0.280903,1.0774279,-0.91786504,0.44058594,-0.92793,0.27649045,-0.04678653,1.0268407,0.36542076,-0.26960614,0.115111776,0.59512126,-1.045176,0.27601,-0.44997,-0.4829432,-0.83968675,0.48586556,0.39120275,-0.32910633,0.8301826,0.28729203,-0.364586,-0.22050509,0.35851997,0.37629193,0.048952967,1.0932218,-0.45574695,-0.33438626,0.21622694,-0.24734832,0.7940943,-0.7915035,0.6249056,-1.3883423,0.13245437,-0.570274,-1.1338774,-0.46158892,-0.28467077,-0.70676917,-0.9021693,0.67726386,0.49415773,0.17119454,0.5283731,-0.4404017,-1.1539041,0.08330317,-0.15276644,-0.78924924,-0.58926904,-0.7373704,0.67007107,-1.0366775,0.4555875,-0.9527332,0.7660116,-1.1050718,0.78547674,0.22592333,-0.8385408,0.33493307,0.17267068,0.6343649,-0.3581662,-0.3103489,0.5603606,0.5806654,0.2477935,-0.74387205,-0.45859706,1.0110854,0.66492987,0.41283408,-0.20839031,0.02056104,-0.979426,0.10261809,0.29221848,-0.67404485,-1.0042584,-0.2985708,0.62400246,-0.25025034,-0.71756184,1.2093959,0.39062497,-0.26332155,0.5281496,0.58270586
but,-0.47213537,0.6753615,-0.18212286,-0.5517483,-0.038356572,0.78359187,-0.3281708,0.6741961,-0.5312705,0.6018666,0.6028253,0.1793693,0.77957106,-0.040737018,0.39486897,0.52121514,-0.81189287,0.2237353,-0.30370626,-0.043212257,-0.39738667,-0.34489214,-0.6810542,-0.642388,0.4568627,-0.5170143,-0.033301562,-0.62523204,0.20807733,0.777511,0.28770077,-0.04572417,0.027816981,-0.82571745,0.66348755,-0.32568628,0.6581435,-0.9442595,0.3042698,-0.5667283,-0.3676654,-0.5487438,-0.04527998,-0.700979,-0.16467543,-0.79552215,-0.4952692,1.1304018,0.29102176,0.6905848,0.47037464,-0.48337868,-1.0606108,0.0060252547,0.69622713,-0.56439614,-1.0702223,-0.7048652,0.4114502,-0.5654186,0.91421425,-0.42875165,0.70586944,-0.5088241,0.43254274,0.27919325,-0.8644321,0.6837179,0.88008475,0.10957231,0.10071467,0.76579285,0.5663153,-0.08260454,0.32387194,-0.84735346,-0.1541432,0.8245074,0.51339066,0.8117683,-0.73725426,-0.83252054,-0.39082643,-0.3436054,0.073773585,-0.70831597,-0.59971464,-1.0178028,0.8264711,0.008603632,-0.88762546,0.6071013,0.76079553,-0.5927033,0.899542,0.07651147
who,0.012434527,0.6524127,-0.6586018,-0.39886057,-0.53025174,0.23884077,-0.93096954,0.26556778,-0.5991674,0.32670575,0.47108787,0.4030021,0.3272594,0.9843132,0.18145835,0.654037,-0.15041965,-0.05985515,0.5211236,-0.15644279,-0.5193999,-0.48365533,-0.7291733,-0.6298323,0.45571512,-0.39604044,-0.43687814,-0.7690704,0.84211403,-0.28497335,0.6277385,0.39309826,-0.7465996,0.0071995556,0.119404614,-0.7578435,0.68479705,-0.6185286,0.9065303,-0.11532528,-0.68539214,-0.41994503,-0.63153434,-0.48596781,-0.3066501,-0.030712098,-0.31502303,0.5135119,0.71842766,0.9817747,0.38558003,-0.5382599,0.3723316,-0.31654733,0.5378068,-0.3704008,-0.15265264,-0.8487416,0.6372052,0.40184394,0.7438401,-0.19175822,0.83486533,-0.3698831,0.30919525,0.83409554,-0.4230022,0.6150869,0.26234382,1.0197664,-1.0529547,1.3167078,0.90504587,0.514944,-0.13634697,-0.912047,-0.7637639,0.21330062,0.5568125,0.5347244,-0.04363685,-0.96461856,-0.43596956,-0.018106699,-0.8009491,-0.31240502,-0.4052682,-0.58551407,0.40473413,-0.8255741,-0.15950163,0.5027931,0.76333386,-0.4928776,0.68027955,0.09826398
at,-0.9822295,0.40447333,-0.45837265,-0.48546267,-0.5394808,0.5368914,-0.36180022,0.8595123,-0.24818633,0.69145274,0.0035091639,0.47034296,0.5276039,0.9922921,-0.22616142,0.30210638,-0.40898576,0.63519245,-0.13881624,-0.8103906,-0.79349494,-0.2076558,-0.81491685,0.0748021,0.09987064,-0.52060187,-0.04496487,-0.23016453,-0.07148279,0.45576233,0.7180941,0.40698028,0.17838846,-0.72436,0.41782752,-0.8953093,1.0539107,-0.7012404,0.67312604,-0.52877295,-0.31354508,-0.35503966,-0.62473154,-0.10945269,-0.6861042,-0.48812628,-0.17458414,1.0330033,-0.53217006,0.34216905,0.47301695,-0.10808894,-0.622213,-0.40577537,-0.11702816,-1.0317783,-0.5382625,-0.65955245,0.41001922,-0.3287245,-0.77739334,-0.5561124,0.09888869,-1.0353186,0.68395984,0.68182486,-0.7622022,0.42445356,0.20495512,0.0044369996,-0.50826323,0.4921205,0.46465814,0.45840722,0.9994048,-0.041233737,-0.9157695,0.25913244,0.8788911,0.53782564,-0.36851123,-0.26855844,-0.449959,-0.18497816,-0.5586398,-0.54194146,-0.32668036,-0.6843116,0.46143353,-0.55987823,-1.004986,0.9020912,0.5606188,-0.41532588,0.20072478,0.6577125
from,-0.48666638,1.0065718,-0.37854636,-0.6700185,-0.008002281,0.6611676,-0.3926028,0.108624496,-1.0324299,0.8243288,0.3188922,0.64758164,0.5418399,0.44922072,-0.5276781,1.1618366,-0.788998,0.42792434,-0.18573524,-0.32833683,-0.60500276,-0.46267688,-0.53513014,-0.100087464,-0.05732301,-0.8493664,-0.61810815,-0.2789792,0.39955732,0.59251344,0.5522716,0.19682288,0.063117385,-0.4183715,0.54009235,-0.15609467,0.057681225,0.09493038,0.63315094,-0.9441438,-0.7198097,-0.54724425,-0.43387455,-0.07363964,-0.6752136,-0.7563309,-0.14176393,-0.14175333,0.27310592,-0.040945947,-0.04411882,-0.44769827,-0.59692353,-0.9267738,0.6789897,-0.9768703,-0.20193535,-0.17246297,0.062791884,-0.3287686,0.73268247,-0.75671685,0.5834077,-0.72697556,0.58497465,0.10902181,0.33579192,0.023157628,-0.20722723,0.29072863,-0.6399795,0.5336294,0.26507202,0.7075655,-0.0004697442,-0.8895581,-0.6069914,0.038752716,0.87916005,0.63525224,-0.56368786,-0.5505465,0.01925546,-0.38498256,-0.5235873,-0.94404054,-0.3554711,-0.6412318,0.8190263,-0.76126194,-0.79644775,-0.092991054,0.76399875,-0.20806241,0.27650276,0.29445878
an,-0.6154283,0.84655154,-0.98185635,-0.5150283,-0.4955879,0.8771745,-1.0448716,-0.2699198,-0.50231016,0.31332862,0.57681644,0.5433775,0.9118439,0.8032887,-0.40981853,0.07851723,0.38054118,0.5516886,-0.79352486,-0.6129078,-0.8259305,-0.39753655,-0.71840787,0.31852853,0.3236336,-0.8947739,-0.7810472,-0.33291298,0.71029973,0.35880962,0.8563366,0.77810293,-0.2761397,-0.90241885,0.7899719,-0.3608203,-0.08750293,-0.33547345,-0.006523043,-0.18218188,-0.6588166,-0.6326624,-0.9763894,0.07489587,-0.3543102,-0.4814633,-0.7963568,0.700981,0.042819142,0.5303564,-0.07686967,-0.6992632,-0.019251615,-0.2904071,0.8370211,-0.5171699,0.15823138,-0.19359908,-0.62890214,-0.15869659,0.03987913,-0.056104183,0.84670377,-0.7057601,1.0621388,0.21518783,0.26276964,0.8655933,0.33202195,0.46562567,-0.756979,-0.027474701,0.7006719,-0.08881083,-0.5039531,-0.08196596,-0.5437182,0.59327155,0.93932575,-0.4046908,0.12816763,-0.7014271,-0.5231662,-0.6591911,-0.40086275,-0.61570144,-0.6766544,-0.5167661,0.3375552,-0.47552615,0.18638943,0.58169794,0.3553913,-0.82737374,0.5759128,0.9797517
has,-0.18029071,0.630413,-0.75848985,-0.29156008,-0.075216174,0.69718325,-0.23907287,0.28920078,-0.32606122,0.1344254,0.93039596,0.33806783,0.9095738,1.1263726,-0.013294756,0.5040723,-0.5571097,0.42463762,-0.4208933,0.17976856,-0.19172454,-0.09951066,-0.6965649,-0.32436487,0.2895385,-0.62811697,-0.5209838,-0.30384368,0.9092664,0.41873255,0.846648,0.16299075,-0.6247034,-0.4161857,-0.23217247,-0.4170245,0.62623775,-0.34465182,0.67220545,-0.7492602,-0.7479615,-0.30182326,-0.509574,0.050131932,-0.5551871,0.120948404,0.5561494,0.37634134,0.6028467,0.40850243,0.8081537,-0.040341914,0.25888306,0.35158598,0.94287163,-0.21975563,0.24066214,-0.46616518,0.54571974,-0.3742389,0.6385355,-0.410323,0.11400172,-0.3133086,0.19339277,0.83267677,0.045703903,0.5875088,0.64524305,0.37086278,-0.6085421,1.0790533,0.74694645,0.430813,-0.41984022,-0.60896885,-0.6530601,0.7142216,0.3233393,0.941833,-0.55534625,-0.9911409,-0.47884786,0.10093856,-0.76809573,-0.40540686,-0.6833357,-0.1928483,0.58890593,-0.55194134,-0.4113383,0.33470723,0.579121,-1.0156586,1.1690712,0.5868324
it,-0.30469334,1.1706419,-0.4162665,-0.50696975,-0.33669013,0.80325955,-0.48087454,0.5187452,-0.33550876,0.5282925,0.45955014,0.43547022,0.42145824,0.85210025,-0.52821636,0.34467605,-0.6148136,0.36839825,-0.63723713,-0.5290186,-0.5557098,-0.07188489,-0.24531676,-0.2804186,0.8690219,-0.15079916,0.1425496,-0.3854527,0.18015347,0.7907107,0.24194437,0.81173617,-0.20357533,-0.48850438,-0.1668109,-0.9901489,0.25637153,-0.9292526,0.6715883,-0.2850388,-0.76246846,-0.7118098,-0.8871319,-0.86187196,0.22900227,-0.50978005,-0.6717305,0.76375496,0.7871373,0.7457541,0.56867695,-0.8640908,-0.5371152,0.41994894,0.6972256,-0.57672703,-0.5422922,0.3370239,0.72466743,-0.4028415,0.74046177,-0.75184697,0.345069,-0.8774469,0.09132353,0.3575,-0.2301079,0.5502944,0.39326298,0.5355748,-0.046188787,0.58274585,0.5525378,0.22402579,0.93423843,-0.4688257,-0.41500404,0.48800126,0.41992778,0.85947907,-0.72673786,-0.74536896,-0.6870278,-0.42811468,0.0300982,-0.102081284,-0.9124203,-0.6988468,0.3289397,-0.5453174,-0.936044,-0.20072375,-0.35442117,-0.41565508,0.3270311,0.81271803
their,-0.67841023,-0.19856998,-0.7241752,-0.15930596,-0.29178202,0.8386067,-0.56540126,0.29340637,-1.2251141,0.79361075,0.16775486,0.98210895,0.115009345,-0.42891285,-0.67117345,0.5720222,-0.36104274,0.4436664,-0.16031094,-0.574847,-0.60320073,-0.19404542,-0.10284948,0.20010787,0.3867454,0.5096112,-0.34244454,-0.114995874,-0.10613921,0.5805024,0.64114726,0.3453614,-0.36153618,-0.5935268,0.6767824,-0.07774734,0.2517841,-0.08280994,0.6543536,-0.93799096,-0.49244127,-0.37764394,-0.8592034,-0.3769634,-0.86290705,0.04108417,-0.6244135,1.0486305,0.3304168,-0.30777663,0.80433357,-0.9182277,-0.6791887,-0.47344905,0.18855765,0.1341531,-0.64337933,-0.6048553,0.4773258,-0.58618903,0.6642599,-0.5806481,0.09191325,-1.066225,0.97495294,1.0408243,-0.2447603,0.77980673,0.37854356,0.5670967,-0.70885307,0.64247096,0.9870412,0.6761011,0.04891531,-0.7053375,-0.18641053,0.4965867,0.4693122,0.25084335,-0.97499025,0.16088733,-0.6561904,-0.23601393,-0.3525175,-0.4268505,-0.6529288,-0.5383647,0.8899883,-0.52271163,-0.41546977,0.68063223,0.76832455,-0.13446797,0.14325236,0.17561205
are,-0.53049517,-0.046139464,-0.6344916,-0.3830333,-0.6734162,0.7608786,-0.48543635,0.6257947,-1.1413589,0.46931157,0.13323049,0.89078563,0.42577207,-0.45745674,0.77021176,0.70460993,-0.90454054,0.30480194,0.21378857,-0.5065579,-0.2251352,-0.257272,-0.21923861,-0.45440584,0.46571738,-0.103631034,-0.3924765,-0.4314379,0.5670406,-0.083481535,-0.14583695,0.43521369,0.0038403124,-0.56513464,0.70713913,-0.4120736,-0.0068914145,-0.97079563,0.78942424,-0.91665757,0.2276881,-0.41670963,-0.4106693,-0.8524717,-0.8839619,-0.32328898,-0.5841838,0.53517723,0.59872645,0.69450974,0.83876395,-0.3446489,-0.68770975,-0.22700647,0.029437251,-0.75753814,-0.119461775,-0.6902168,0.5658617,-0.77027917,0.69066,0.25325137,0.790919,-0.5709438,0.9818117,0.6028492,-0.45713183,0.18682948,-0.020635799,1.011076,-0.7333563,0.3418485,0.9538974,0.84803927,0.49646756,-0.41336066,-0.37455714,0.6864214,0.3655495,0.020372417,0.023584131,-0.28044835,-0.33363265,0.37048948,-0.6124258,-0.76594055,-0.8415588,0.06258406,0.7784517,0.22903726,-0.42208424,0.4632891,0.6384078,0.07837532,0.47738698,0.44899142
when,-0.79294354,0.34965464,-0.17450348,-0.65622544,0.3054911,0.5779179,-0.32236236,0.56606454,-0.3086569,0.6329225,0.8719219,0.4049316,0.8414831,0.24641478,-0.28504968,0.65490586,-0.418538,0.32523197,-0.30740306,-0.54447615,-0.94753677,-0.12361662,-0.48193753,-0.8361341,0.39013776,-0.2138888,-0.010754034,-0.34084722,0.5412174,0.5308066,0.1535629,0.26130956,-0.25836653,-0.5625318,0.68575215,-0.44359422,0.8994621,-0.8401811,-0.05093047,-0.54853064,-0.19695395,-0.5024755,-0.34315288,-0.25720865,-0.24744366,-0.34974265,-0.48003966,1.114685,0.7452507,0.3322369,0.51118535,-0.43727225,-0.5907173,-0.15162191,0.15137184,-0.51595473,-1.0869675,-0.64042807,0.6830917,-0.43399027,0.6259501,-0.70009875,0.93501115,-0.6367528,0.35779294,0.06197977,-0.774477,0.8963181,0.081658736,-0.63986254,-0.48278445,0.22154516,0.71827894,0.5071651,0.67903125,-0.5496265,-0.44882837,0.58596534,0.68118465,0.29717994,-1.0522153,-0.17072842,-0.391789,-0.7974936,-0.71318233,0.03646809,0.059279054,-0.45049566,0.6308894,-0.01438868,-0.9228213,-0.13692829,0.5195928,-0.8957373,0.6159656,0.16789494
after,-0.08224034,0.59994715,-0.7641561,-0.32812852,-0.4997662,0.61283195,-0.5844723,0.1842654,-0.7237633,0.4407054,0.15180343,0.6672439,0.7717435,0.26776913,-0.13019672,-0.019624054,-0.44783705,0.8509705,-0.6434782,-0.4605492,-0.61320746,-0.37427247,-0.36507604,-0.35855034,0.17636581,-0.73889107,-0.335559,-0.20160148,0.5483409,0.6181791,0.5573094,0.29110157,-0.33779743,-0.99788535,0.80187255,-0.5606922,-0.29714805,-0.5555669,0.4804054,-0.8977126,-0.7615802,-0.62272775,-0.34502417,0.0243316,-0.729853,-0.45207003,-0.21551198,0.23054141,0.42548817,0.5968542,-0.058557644,-0.7966076,-0.70397156,0.03702025,0.4304312,-0.30691543,-0.29834914,-0.656863,0.30199084,-0.79223186,0.08803684,-0.5523908,0.13213798,-0.50238776,0.6433034,0.55788875,-0.18908598,0.1449149,0.41685507,-0.15946741,0.471556,0.30025214,0.6156607,0.8346514,0.70077163,0.3575542,-0.41778752,0.026541859,0.50769687,0.6904983,-0.6615342,-0.3371054,-0.6758765,-0.43464327,-0.47654915,-0.844285,-0.16218974,-0.67505664,0.74449307,-0.28365776,-0.7694286,0.67082334,0.63865775,-0.5059349,0.2145936,-0.053490974
out,-0.6184008,0.9033154,-0.44986844,0.15070382,-0.54697704,1.0418434,-0.5594616,0.057498217,-0.18431903,0.75258267,0.647334,-0.050842214,-0.035576086,0.5169844,-0.38842,0.7474245,-0.26999703,-0.0864935,-0.6939227,-0.36303484,-0.3393697,-0.47803432,-0.2651101,-0.2021862,0.82210875,-0.812159,-0.40621915,-0.2146636,-0.3062445,0.28079784,0.4748063,0.45638993,-0.42483422,-0.81365883,0.11449757,-0.24513197,0.15650219,-0.753961,0.96706164,-0.92347777,-0.7223618,-0.524554,-0.6555885,-0.3604167,0.42300367,-0.84209585,-0.690566,0.15950638,0.7503456,0.59487265,0.58111614,-0.4716403,-0.14473593,-0.42094332,-0.44836655,-0.46165305,-0.19561505,-0.33881858,0.5652199,-0.68317646,0.9284762,-0.41092598,0.1790891,-0.87981087,0.16206962,-0.32879204,-0.05613731,0.41814092,0.23563604,0.31402305,-0.26721975,0.54301035,0.8976791,0.7360681,1.0430535,-0.49683946,-0.45659858,0.92557824,0.39431587,0.5011826,-1.0267938,-0.5225814,-0.9029859,-0.5547604,-0.42697775,-0.44680595,-0.23671839,-0.16661331,0.87104565,-0.5415928,-0.3920029,-0.11223016,0.10312301,-0.28581804,0.5254236,0.5149437
'',-0.17296761,0.2250491,-0.7151606,-0.10842383,-0.050541937,0.36973238,-0.47839773,0.88479227,-0.26708028,0.08751265,0.47373325,0.6089377,0.878132,0.66768944,-0.1905639,0.24988654,-0.7750162,0.46338964,0.056678325,-0.63223207,-0.62142366,-0.5354648,-0.57073087,-0.58359104,0.04102075,0.09857997,-0.4440109,-0.41842085,0.5200363,0.5157211,0.107939884,0.42242548,-0.22695228,-0.6444602,0.5757431,-0.7023948,0.015600622,-0.45969218,0.6264179,-0.1709815,-0.8402651,-0.69113994,-0.108098805,-0.5882935,-0.7568157,-0.40046668,-0.83841324,0.35713363,0.641224,0.41471815,0.4625781,-0.5635612,-0.629712,-0.29423127,0.57596064,-0.4570554,-0.108732335,0.25116274,0.6487802,0.10567797,0.31311166,-0.034758106,0.67161447,-0.4701165,0.21455859,0.7703273,-0.678355,0.7901816,0.2969149,0.47736257,-0.27249068,0.50307184,0.47319797,0.6179378,0.46705723,0.048159733,-0.45803946,0.802404,0.5257971,0.34691846,-0.34106618,-0.41962337,-0.686197,-0.6362667,-0.2038362,-0.67177975,0.020423457,-0.61166674,0.30359954,-0.39425603,-0.08292877,0.40430027,0.58474255,-0.4369635,0.3187163,1.0464983
into,-0.20052205,0.7280417,0.0888838,0.44859338,-1.1646473,0.6821529,-0.18302736,-0.20869553,-0.5606674,0.61627847,0.4787004,0.014145818,0.104310274,0.11574953,-0.9428023,0.214716,-0.048646808,0.39803094,-0.8930912,-0.1513519,-0.42100933,-0.5012562,-0.38729787,-0.4230405,0.3937186,-0.8212346,-0.52241087,-0.5057491,0.19913217,0.36507225,0.6265272,0.81236184,0.15019086,-0.4796449,0.15173075,-0.081462115,0.2494896,-0.745893,0.15028033,-1.0479233,-0.14213726,-0.8636242,-0.75910366,0.24033251,0.20982656,-0.6947745,-0.44128957,0.4826514,0.33995938,0.59339726,0.5673281,-0.15191725,-0.005841613,-0.8485741,0.27501938,-0.5732481,-0.46085778,-0.29442048,0.34925964,-0.7226304,0.89470005,-0.4906851,0.4847753,-0.9395598,0.6195061,-0.2541322,-0.39552158,0.42824012,0.062046662,0.28450638,-0.39986458,0.5051919,0.08537187,0.9059861,0.36308265,-0.012085959,-0.15443094,0.23327798,0.9589832,0.45949006,-0.6795455,-0.4280157,-0.90494186,-0.6650083,-0.4727608,0.2586194,-0.37667656,-0.78265196,0.8250066,-0.6341724,-0.32772586,0.2762957,0.23169692,0.4934629,0.40534168,0.12534085
up,-0.58312714,1.038861,0.12503757,-0.4162489,-0.5406029,0.92504096,0.46283025,-0.2527429,-0.573976,0.49340895,0.4316706,-0.27848774,0.19353944,0.7512146,-0.4848538,0.5962649,-0.3064555,0.2076987,-0.43539363,-0.6526619,-0.73747957,0.021756947,0.23849022,-0.5760547,0.1140662,-0.19322094,0.16167283,-0.14562745,0.61079466,0.5657882,0.79034746,0.68782306,-0.7095617,-0.81909823,0.12992954,-0.85015774,0.69837797,-1.0384599,0.679734,-0.25835946,0.14018387,-0.4878918,-0.5501548,-0.43791366,-0.110110134,-0.52575845,-0.57410455,0.6480887,0.08091866,-0.20533358,0.08745006,-0.63275754,-0.8000533,-0.5042592,0.2675845,-0.50255275,-0.03493263,-0.43497455,0.39524424,-0.13594475,0.13108838,-0.39155543,0.4585495,-0.6431414,0.81617826,0.49347264,0.008103818,0.9705868,0.4180364,0.7986345,-0.2067033,0.20616871,1.3089561,0.92352724,0.6768682,0.20968294,-0.6347787,-0.6529043,-0.05144623,-0.1836378,-0.6869296,-0.42400157,0.07328242,-0.3363503,-0.8593559,-0.19602412,-0.58064276,-0.79466873,0.4400927,-0.5514295,-0.67666334,0.72982407,5.51939e-05,-0.30343682,1.0059906,0.7112735
them,-0.6311902,0.73142076,-0.6736591,0.2686661,-0.2680446,0.85381114,-0.6126564,0.38684538,-1.2085178,1.0627673,0.24102677,0.26412433,0.22714823,-0.09625679,-0.20484959,0.7840538,-0.5827819,-0.39809793,-0.7046127,-0.73343885,-0.65099424,-0.47418818,0.06559044,-0.31323653,0.563228,-0.25506932,-0.23441137,-0.40530694,0.25396347,0.31023526,0.6787102,0.46899214,-0.6542421,-0.8570162,0.44629526,-1.1768488,0.43784812,-1.3139931,0.6026907,-0.8304508,-0.456123,-0.40255633,-0.33184743,-0.9171616,-0.048048973,-0.4998929,-0.4722877,0.0936641,0.22532985,-0.00022025406,-0.15002489,-0.74496,-0.047049,0.101704046,0.20890373,-0.4806685,-0.80025226,-0.78222096,0.29156968,-0.44593996,0.7400079,-0.54289377,0.7640085,-1.1274871,0.38169956,0.43567234,-0.28692222,0.4875358,0.48668298,0.59679127,-0.40908116,0.5070631,0.16434431,1.0291305,-0.11934063,-0.52131295,-0.5007092,0.103650525,0.07856698,0.48615634,-0.6233127,-0.5000254,-1.0363953,-0.2938189,-0.3076265,-0.8797482,-0.39727512,-0.29222435,-0.069753364,-0.04591243,-0.15199274,0.40359172,0.4314091,-0.38306227,0.53247344,0.15663283
be,0.16139516,0.7375695,-0.5208974,-0.48170245,-0.0083498955,1.1896123,-0.744722,0.06327993,-0.22972998,0.71444184,0.91112494,0.7773031,-0.09556793,0.18117467,-0.17161304,0.051679455,-0.7462899,0.1638584,-0.4560152,-0.5594391,0.024894955,0.17107657,-0.5374474,-0.96680427,0.61651933,-0.006058432,-0.111218214,-0.22623767,0.7389203,0.20838082,0.75435245,0.53327364,-0.1232672,-0.1506092,-0.8987996,-0.5328663,0.2291036,-0.41482028,1.0245478,-0.21728474,-0.5981945,-0.5616474,-0.6307007,-0.88016963,-0.61491704,-0.65727895,-0.82848537,0.49221814,0.9064379,0.86862767,0.56949186,-0.7125903,0.3080468,-0.6764263,0.60546046,-0.76617706,-0.64658725,-0.27970788,0.7685876,-0.09367946,0.4853324,-0.07943419,0.21763249,-0.07670239,-0.107526496,0.35316283,-0.26946884,0.40298986,0.23856929,0.8243278,-0.6312555,-0.33479643,0.5205336,-0.42762357,0.6608131,-0.6798817,-0.8273843,0.7165352,0.014653057,0.4243942,-0.042061746,-0.14460188,-0.40537912,-0.028647244,0.014363833,-0.6887128,-0.6483921,-0.22107056,0.36466256,-0.5966801,-0.38517094,0.6279643,-0.008686304,0.14282803,0.17670652,0.87018406
was,0.08458699,0.8449037,-1.1419375,-1.0963851,-0.21778424,0.78902733,-0.7703248,0.46136704,0.060761284,0.8363006,0.35889897,0.29991198,0.34781763,0.8285798,-0.02443993,0.117647074,-0.114838794,0.68708915,0.040556967,-0.76178205,-0.60386974,-0.082953274,-0.6790915,-0.35704798,0.4177776,-0.09074769,-0.5747075,-0.14926857,0.7761958,0.48952207,0.22215052,0.45125964,0.28548393,-0.38015103,-0.03201897,-0.6882374,0.64262605,-0.51195735,0.23376776,0.32361513,-0.88327205,-0.9128014,-0.7399514,-0.3092417,-0.6971451,-0.6040087,-0.3837247,0.6440619,0.9741099,0.7412215,0.50156313,-0.32280037,0.16013673,0.3321041,0.7985976,-0.2308118,-0.39555824,-0.014442116,0.31928453,0.15162048,0.941299,-0.19463268,0.4677406,-0.22586662,0.26733953,0.4962511,-0.26999393,0.061674863,0.16000792,-0.36678392,-0.45643604,0.7310177,0.97357416,0.04212767,0.8462976,-0.7675737,-0.5384071,0.4042467,0.230282,0.72356224,0.36143076,-0.26000276,-0.5065087,-0.37049,-0.5053907,-0.5298683,-0.39479104,-0.4560449,0.3589004,-0.2971274,-0.98837626,-0.4394561,0.48877206,-0.560052,0.5918268,0.4372639
not,0.7943699,0.97015274,-0.9468427,-0.76630616,-0.08244707,0.79856634,-1.0446278,0.17274754,-0.47115594,0.7925422,0.34743732,0.46327835,0.36166143,-0.5792508,-0.32475618,0.5630014,-0.56925184,0.7076245,-0.2896031,-0.4879154,0.14112389,-0.35305482,0.08918983,-0.6238867,0.85040206,0.11746596,0.62722653,-0.38853508,0.27739152,0.8646994,0.3922109,0.8814318,-0.37678006,-0.8497405,-0.14398237,-0.72544456,0.43453443,-0.6019904,0.2284422,-0.090282306,-0.49402407,-0.066817194,-1.0005189,-0.86339796,-0.6396398,-0.8951256,-0.59572434,0.4893341,0.17704771,0.2570818,0.53843665,-0.5825723,-0.5308397,0.36714184,0.784516,-0.36337003,-0.18995532,-0.94402033,0.7058301,-0.33476567,0.8349148,-0.5660845,0.4596204,0.50066483,0.12591858,0.6560242,-0.22273807,0.5689318,0.99120677,0.75071144,-0.33122095,0.46026474,0.58166754,-1.178957,0.5569135,-0.55783826,-0.8595114,0.79992247,-0.16725779,0.8845103,0.10255505,-0.2847619,-0.4200819,0.3024046,0.531095,-0.88366497,-0.4196543,-0.6931474,-0.18102299,-0.32720003,-0.7690065,0.9861804,0.36066553,0.092657216,0.76389223,0.70230836
one,-0.23797223,0.5751201,-0.62633497,-0.5152888,-0.37616715,0.78440356,-0.27243465,0.7982913,-0.8567697,0.9136722,0.20412183,0.47566962,0.19834125,0.62780344,-0.45214826,0.57562286,-0.73039687,0.25120193,-0.198297,-0.6946781,-0.54180694,0.028833598,-0.80365944,-0.41245282,-0.35621256,-0.53918374,-0.83673173,-0.49977857,0.114417136,0.32496512,0.7765235,0.07591145,-0.15113422,-0.7436857,0.27442086,-0.68636477,0.7393891,-0.8331431,0.5961766,-0.72203827,-0.52190393,-0.7753338,-0.68509614,-0.5903753,-0.8406786,-0.36875752,-0.2692867,0.32917088,0.5917956,0.026925907,0.263022,-0.54728866,0.90550447,-0.1463533,0.43372104,-0.37108818,-0.8102267,-0.8006968,0.47308934,-0.43641275,-0.035241075,-0.1376042,-0.04292582,-0.7413375,0.34327757,0.39521343,-0.72971743,0.6455764,-0.0657683,-0.53754723,-0.17903179,0.7256222,0.6979711,0.38985008,0.48365736,-0.5856624,-0.038995713,0.20520176,0.24104387,-0.16689676,-0.258504,-0.5501791,-0.8877309,-0.49541396,-0.16996402,-0.7646124,-0.055645004,-0.7434125,0.70297575,-0.23010722,0.3109379,1.0487418,0.36423117,-0.87731534,-0.35498327,0.91020656
then,-0.674752,0.63250494,0.23791018,0.2558524,-0.3955989,0.13785313,-0.16630054,0.64391685,-0.47231334,0.1075864,0.6052471,0.28476542,0.005159721,0.79217196,0.07833073,0.2258177,-0.2743687,-0.3950204,-0.60880536,-0.5654472,-0.6940934,-0.39882413,-0.6487781,-0.7714218,0.3823611,-0.51514196,-0.17256111,-0.68936443,0.50552845,0.2657209,0.67661136,0.5236794,-0.4431293,-0.5315352,0.3803894,-0.59253144,0.41909087,-1.2785792,0.54283637,-0.12906629,-0.4642164,-0.24965927,-0.08433188,-0.79565585,-0.051640347,-0.44414288,-0.19217286,0.32675627,0.742064,0.6666361,0.23840722,-0.1987092,-0.54821473,-0.27406582,0.13897793,-0.58530045,-0.6483957,-0.08464936,0.5426274,-0.4540739,0.9300065,-0.46767682,1.1418812,-0.76598,0.17665592,0.24087104,-0.6376462,0.50184983,0.39584035,0.6359907,-0.4689272,0.27839154,0.30839694,0.88358355,0.33348876,-0.042888626,-0.3181191,0.23447351,0.87804925,0.60436976,-0.7862139,-0.50742435,-0.7960345,0.012161672,-0.5887243,-0.30893806,-0.38316986,-1.0200833,0.36710367,-0.3552493,-0.1531782,-0.14574787,0.56967753,-0.50267,0.6608331,0.124474615
which,-0.1536818,0.38918677,-0.83672214,-0.08849603,-0.42980102,0.61370945,-0.47455558,0.5893097,-0.30266726,0.35679516,0.86979735,0.36307716,0.42627582,0.55063164,-0.7398766,-0.20597677,-0.3664508,0.25107375,-0.6003077,-0.6194235,-0.3126633,-0.16792001,-0.39118525,-0.38396353,0.32679138,0.14141472,-0.30512556,-0.083352014,0.70016986,0.61501986,0.7917873,0.6665428,-0.00428392,-0.35926974,0.20426275,-0.6287098,0.3211784,-0.49617544,0.74139106,-0.4364669,-0.8009373,-0.68792355,-0.10921657,-0.41324243,-0.51928145,-0.6651701,-0.78569305,0.43614477,0.68337137,0.2831521,0.28160667,0.043474108,-0.36161458,-0.11922449,0.79824984,-0.23426954,-0.29050896,-0.32074913,0.4589184,0.10977274,0.09606269,-0.36215103,0.064938486,-0.7235231,0.4213872,0.58568203,-0.44558573,0.37497053,0.26123267,0.16005243,-0.18704563,0.33585167,0.030282691,0.6564789,0.12118314,-0.2705354,-0.40249014,0.159049,0.54596305,0.605162,-0.067080505,-1.0005928,-1.1878082,-0.34594005,-0.2084901,-0.92949677,-0.5007713,-0.45430815,0.21327344,-0.6280427,-0.15342128,0.28541452,0.4849691,-0.4990784,0.43931264,0.7253766
while,-0.7791824,-0.07903686,-0.6811633,-0.37022734,-0.42508566,0.71632177,-0.606922,0.29525906,-0.6439294,0.6404468,-0.04781805,0.56320536,-0.111112826,0.72212434,0.18389711,0.55296415,-0.6801884,0.84146005,-0.588472,-0.980405,-0.76968336,-0.43989465,-0.68869007,-0.51546794,0.4785231,-0.42723688,-0.35330454,0.41097146,0.6311827,0.05695987,0.13086732,0.16706394,-0.4234755,-0.37703952,0.9686341,-0.58137083,-0.19850817,-0.56176174,0.3401208,-0.2592596,-0.23672692,-0.538169,-0.49114946,-0.43251443,-0.3994986,-0.6406247,-0.43698853,0.26061583,0.34557688,0.38863528,0.32620293,0.09235843,-0.7357056,-0.100820124,0.52602845,-0.7931705,-0.6702862,-0.14009926,0.3943565,-0.67735183,0.22950475,0.069226906,0.41632497,-0.73321146,0.6799109,0.38638303,-0.07685474,-0.13648012,-0.09519239,-0.02439873,0.06738928,0.45312908,0.84218013,0.7927133,0.4961963,-0.0112448335,-0.4479218,0.44733444,0.16076286,0.6331631,0.1572558,0.25595242,-0.1946375,-0.3381868,-0.94305646,-0.5906786,-0.2139597,-0.79696286,1.0077388,0.05705896,-0.43794122,0.11164144,0.8901144,-0.30496907,0.053619355,0.31853554
this,-0.2602823,0.5177466,-1.0157216,-0.82291585,0.049132705,0.5744813,-0.44939503,0.6643944,-0.41734833,0.72857726,0.57389426,0.3273538,0.4408812,0.38779527,-0.785934,-0.4891108,-0.308102,0.21726291,-0.36902052,-0.49316502,-0.5874127,-0.25547716,-0.49376497,0.11273679,0.60500485,-0.09276519,-0.008133382,-0.6747122,0.075517945,0.6836367,0.46681872,0.3466877,0.22323814,-0.8361345,0.5961581,-0.73641974,0.08181231,-0.66023517,0.4612459,-0.17350662,-0.94990796,-0.51371,-0.077481054,-0.8425995,-0.318866,-0.4918427,-0.5210728,0.77484024,0.41042814,0.10133378,0.6270408,-0.23266935,-0.1115517,-0.53268945,0.8445627,0.18452081,0.035437107,-0.34909195,0.07646598,-0.41272673,-0.18460684,-0.63109535,0.16077577,-0.7133746,0.10852651,0.62663525,-0.5973614,0.3545615,0.6014898,-0.095589876,0.088634804,0.2762708,0.21905464,0.014734788,0.8211957,-0.41285762,-0.5266703,0.3173859,0.5680633,0.39340433,-0.18953116,-0.5906949,-0.9971628,-0.63010734,-0.15177178,-0.63662755,-0.5760218,-0.1929388,0.11320487,-0.21138997,-0.9519099,0.2840209,0.26036853,-0.6241569,0.14220873,0.9913529
about,-0.44523644,0.49387866,-1.3589165,-0.8288332,-0.14016125,0.6843162,-0.6069174,0.5305298,-0.51581377,0.7031739,0.3985059,-0.018312778,0.19804464,-0.06638093,-0.18668313,0.30272076,-0.5759184,-0.27113307,-0.37814867,-0.0331666,-0.5606926,-0.93335474,-0.29982215,-0.044697616,0.7435769,-0.19669533,-0.36080113,-0.38656843,0.1883869,0.766178,0.12417131,0.2240347,-0.47720814,-0.40293464,0.864699,-0.26310003,0.24720082,-0.32607567,0.28396332,-0.49156046,-0.6247202,0.09544322,-0.42131138,-0.69263273,-0.10160473,0.12394066,-0.26102236,0.5120305,0.5454705,0.47384155,0.1241527,-0.26510638,-0.08732474,-0.6716094,0.4758816,-0.18765765,-0.15639049,-0.7608859,-0.30087993,-0.6344649,0.8934978,-0.6372278,0.9862682,-0.47034645,-0.47747442,0.81880116,-0.63631237,-0.28949013,-0.054138273,0.80189085,-0.5480687,0.2358373,0.5222414,0.005357623,1.0187627,-0.41058627,-0.518674,0.11926113,0.3749524,0.5395013,-0.45277408,0.1227198,-0.48448992,-0.10650344,-0.69197774,-0.40800315,-0.5833629,0.5707309,0.07086694,-0.16402215,-0.9707043,-0.3637774,0.65968305,-0.6071682,0.11867398,0.664508
back,-0.64790016,0.5835409,0.00327982,0.12663515,-0.4417189,0.7593557,-0.05778575,-0.23659497,-0.92291856,0.5089773,0.7152258,0.38395944,0.09277859,0.27932435,-0.6262362,0.49592397,-0.5258988,0.45596766,-0.66910255,-0.32599705,-0.8587686,-0.5107398,-0.16568094,-0.48597142,0.5908241,-0.808641,0.073282436,-0.238698,0.10628264,0.6467272,0.79160357,0.6889777,-0.041434303,-0.67525077,-0.2002835,-0.23612797,0.3681774,-0.6388743,0.18556678,-0.7658217,-0.5173171,-0.083184466,-0.5848006,0.09969092,0.16968693,-0.5266118,-0.28644663,0.47824064,-0.35738096,-0.062235862,0.586781,-0.25128445,-0.44083303,-0.7098037,0.04151994,-0.9544428,-0.39887223,0.31815034,0.3487352,-0.543319,0.9108264,-0.54965687,0.23855843,-0.7408129,0.7630122,0.290232,-0.6096263,0.6760354,0.45854795,0.27593502,-0.3693642,0.43059376,0.31668514,0.6072874,0.47490034,-0.049113512,-0.1320663,0.13922864,0.46149388,0.916435,-0.85771483,0.5406945,-0.6163397,-0.41585347,-0.6521951,-0.2711316,-0.33589765,-0.7697097,0.6207743,-0.52180725,-0.6449562,0.13364893,0.5498638,0.37103936,0.81339264,0.5184176
have,0.19536379,0.3775766,-0.63541174,-0.66890883,-0.09640224,0.72329414,-0.4571658,0.34627357,-0.59388,-0.19225585,0.5757823,0.8002789,0.6912837,0.29149508,-0.07001276,0.22075494,-0.6121462,0.43586215,-0.25217903,-0.07096061,0.26290745,0.14586644,0.18888314,-0.4218206,0.6358035,0.32522026,-0.105963334,0.008578239,0.85553706,0.18895602,0.1601709,0.42072284,-0.75023174,-0.29769182,-0.6004306,-0.12386042,0.92582357,-0.60250485,0.5281017,-0.66391623,-0.14524722,-0.49298394,-0.7773036,-0.4793769,-0.62737554,-0.24958275,-0.2957971,0.5180044,0.3162617,0.5692612,0.5700971,-0.26192302,-0.15293756,0.4384066,0.15372701,-0.2744199,0.13044882,-0.6694156,0.6607065,-0.27414426,0.25111422,-0.9497065,0.2504912,-0.26569083,0.6744806,0.8912411,-0.26303622,0.5296373,0.60498464,0.9901873,-0.35137314,0.71599215,0.30792198,0.5894146,-0.56366056,-0.9365039,-0.57544374,0.83416605,0.39589953,0.17863972,-0.14150368,-0.8680742,-0.77309257,0.016801879,0.13123628,-0.58382314,-0.75847656,0.31690234,0.2527384,-0.8357857,-0.0523827,0.9570334,0.4109943,-0.6222085,0.68792474,0.4287833
where,-0.49788892,0.030866101,-0.19140956,-0.045037925,-1.1456461,0.2405591,-0.8167447,-0.16841252,0.053123154,0.20042658,0.012007102,0.53108525,0.2710666,0.9006233,-0.36817032,0.64040244,-0.32185295,0.24740967,-0.54588723,-0.59859526,-0.37131798,-0.19080877,-0.7232307,0.002121456,0.35479653,-0.48470968,-0.8030523,-0.53664416,0.23972109,0.82081646,0.28204772,1.0540785,-0.19029222,0.5634557,0.2621115,-1.1386988,0.8418882,-0.15116583,-0.2699272,-0.86457527,-0.15793209,-0.34789056,-0.653693,0.3182431,0.09338322,-0.75290495,-0.33202216,0.7130137,0.13935848,0.32919452,0.4591409,0.34406167,-0.7531853,-0.1588874,-0.13510123,-0.58600694,-0.10200625,-0.9061382,0.45202127,-0.41793054,-0.27217266,-0.79577637,0.38979602,-0.6774932,0.65583336,0.013649568,-0.7322915,0.26016268,-0.257716,-0.30988255,-0.87180376,-0.30647343,-0.062105715,0.3756069,0.17624229,-0.49910808,-0.6985317,0.5597225,0.7452285,0.90226614,0.115038306,0.035880636,-0.59313035,0.08377794,-0.29866156,-0.37651283,-0.62933517,-0.9388926,0.6823209,0.2541994,-0.8110987,0.060043097,0.53589046,-0.50411034,0.43418896,0.9730019
all,-0.59436584,0.5837547,-0.52749634,-0.5014417,-0.35541165,0.7696657,-0.5918094,0.8234,-0.96798253,0.6980616,0.30098444,0.5649545,0.48763624,0.030933369,-0.13276905,0.5163869,-0.7425436,0.37631884,-0.4072298,-0.702243,-0.53184444,-0.22516651,0.011076242,0.23130602,0.66607195,-0.12582937,-0.17089441,-0.2142334,0.30788058,0.17758256,-0.04446408,0.23029834,-0.3066181,-0.82308966,0.6239184,-0.6683905,0.32456952,-0.9484691,0.52493846,-0.4274409,-0.37149042,-0.73013544,-0.55382156,-0.7745482,-0.21839787,-0.70893306,-0.2431484,0.242166,0.18873115,0.5946953,0.35496497,-0.4482153,-0.073733695,0.22567695,0.27302825,-0.053929552,-0.1196755,-0.39356232,0.27050126,-0.41858685,0.408005,-0.7049989,0.045403928,-1.0697024,0.58772534,0.74693364,-0.35665187,0.45825642,0.47945505,0.62837565,0.06399263,0.5627575,0.38448092,1.1025317,0.29219484,-0.73012865,-0.06753417,0.33866408,0.20023835,0.03438413,-0.3318237,-0.8037157,-0.62288725,-0.32862037,-0.2619032,-0.7499299,-0.66588694,0.10861099,0.43774337,0.14777482,-0.5295639,0.043002162,0.37952203,-0.4245745,0.26175687,0.69062597
will,-0.1696212,0.48084632,-0.48353302,-0.14874917,0.27962714,0.538543,-0.8439175,0.23693421,-0.6592345,0.60023606,0.5947206,0.5987066,0.1814056,-0.08617734,-0.37955788,0.15814379,-0.6871331,-0.052087635,-0.5891522,-0.60212266,-0.27508253,0.0345674,0.15559432,-0.61862457,0.5382595,0.23045403,-0.081889614,-0.4118384,0.7650146,0.72806525,0.43470892,0.5507033,-0.41839254,-0.1577144,-0.70850253,-0.7907395,0.6212637,-0.6476209,0.6249448,-0.375354,-0.4221977,-0.3660345,-0.69012094,-0.52574,-0.27063385,-0.63093346,-0.47559908,-0.07376504,0.8522091,0.4400448,0.22605897,-0.6425788,-0.086386256,0.10966197,0.67151296,-0.32598191,-0.7995733,-0.61762226,0.91488504,0.118238434,0.3285212,-0.69470537,0.013623342,-0.51226115,0.0019091889,0.22793335,-0.69723314,0.6183813,0.33930582,0.5968958,-0.4012376,-0.12087378,-0.007555142,-0.09593265,0.05405574,-0.84764624,-0.36569223,0.46649155,0.20004964,0.489063,-0.41931373,-0.051331945,-1.049542,0.029026419,0.37012392,-0.8954264,-0.5173701,-0.7423212,-0.021994233,-0.3221057,-0.38695177,0.6591736,0.16621217,-0.29452124,0.5758062,0.88130254
two,-0.530851,-0.13933133,-0.18033682,-0.18931,-0.5000353,-0.26691946,0.16566345,0.34648857,-1.0705006,0.35456225,0.26590583,0.8001232,0.2414428,-0.4833977,-0.062717944,0.7518191,-0.55584985,0.21772827,-0.33587193,-0.16787216,-0.39220604,-0.6236155,-0.30846712,-0.32317543,-0.053030487,-0.42757967,-0.95342356,-0.3504792,0.3657154,-0.026377425,0.28739056,0.26713553,-0.4109492,-0.65359676,0.52205896,-0.28127038,0.2698667,-0.8157518,0.51721203,-0.66335547,0.044063956,-0.4487216,-0.15569583,-0.6147883,-0.47432226,-0.33678854,-0.45737022,0.23556514,0.5864315,0.7122516,0.45817676,-0.7634506,-0.0750886,-0.22582422,-0.5637666,-0.16719478,-0.39439416,-0.62236226,0.049863324,-0.78048146,0.14699432,-0.5628591,0.35546446,-0.4095462,0.7354576,0.6470382,-0.8457284,0.7253482,0.3063409,0.70219123,-0.22431614,0.721927,0.769677,1.0607154,-0.17705458,-0.8319665,-0.44442236,0.5219571,0.092344016,-0.33875602,-0.32066423,-0.37984434,-0.35918677,-0.6399439,-0.48096555,-1.0070342,-0.64508134,0.017879419,-0.036083534,-0.06047932,-0.10115337,0.5291508,0.53238755,-0.5777106,0.39753205,-0.29679278
film,-0.7097276,0.49111897,-0.16319333,-0.77165407,-0.5146743,-0.015213843,0.52073276,0.41600108,-0.40626433,0.22459486,0.37664947,-0.24672407,0.26111466,0.5676478,-0.6743554,0.2154005,-0.09734143,0.33675253,-0.58321553,-0.746318,-0.19702238,-0.39793777,-0.45652375,0.66769624,0.12652701,-0.048978895,-0.5243871,-0.28872865,0.10255747,0.5720936,0.43244365,0.5601669,0.19198173,0.012935579,0.613614,-0.45647323,0.71686244,-0.8355829,0.6748769,0.42056635,-0.4655324,-0.60441965,0.26789373,-0.9250673,-0.20563133,-0.649259,-0.60179347,0.8726702,0.5639909,0.033598557,0.5579872,0.14762668,-0.634042,-0.561566,0.65373385,-0.3328016,0.058627307,0.0687989,-0.3966971,-0.2194736,0.3662879,-0.351959,0.6025781,-0.5090153,0.34956908,0.80667055,-0.38365394,0.22480775,0.15391374,0.6713794,-0.4958803,0.04621251,0.45539764,0.53163767,0.6005569,-0.15770999,-0.45054078,-0.8596766,0.18027087,-0.0077958927,0.04147456,-0.8731493,-0.14095631,-0.48184276,-0.63907564,-0.40958375,-1.0656757,-0.036165774,-0.15890764,-0.2221655,-0.66959,-0.30026042,0.3937894,-0.5824848,0.19191134,0.7779758
father,-0.276645,0.46030772,-0.83445144,-0.60595214,-0.35042408,0.4740625,-1.0147346,0.63734293,-0.07728618,0.80386853,0.5237592,0.52097505,0.27945653,0.23131138,-0.04575912,0.5686008,-0.22681516,0.13949136,-0.26239908,-0.68461365,-0.3532917,-0.282917,-0.6370531,-0.13240266,0.1007292,-0.36423612,-0.5514819,-0.37252682,0.84247553,0.63634634,0.628059,0.14576611,-0.056792706,-0.42466205,0.32485515,-0.26896954,0.55774033,0.048169013,0.63351184,0.13593592,-0.5250468,-0.061052103,-0.5244881,0.114403516,-0.7332461,-0.257134,-0.35625374,0.07595033,0.33387506,0.7223282,0.07988013,-0.56483054,0.04305622,-0.054574497,0.4457534,0.0851084,-0.657554,-0.48469716,0.6243115,0.20671068,0.9691405,-0.14397295,-0.13386074,-0.18020262,0.5760422,0.7366629,-0.30571184,0.44939864,0.5453384,0.43843645,-0.6568737,0.7268053,0.8875458,0.108404696,0.5456281,-0.07722214,-0.23979914,-0.10236122,0.59165525,0.8892844,-0.71944195,-0.4335107,-0.47164208,0.16651532,-0.68061936,-0.19014712,0.08507194,-0.18741527,0.51481557,-0.56957775,-0.7720832,-0.14625274,0.8118564,-0.7279768,0.81467247,0.015394091
man,0.28154328,0.73685753,-0.5890969,-0.23174782,-0.16443907,0.050058424,-0.59071684,0.16545513,-0.0016738772,0.06896666,0.40930793,0.48502898,0.36562672,1.0124037,-0.09836203,-0.09267202,-0.052186884,0.22158709,0.30064237,0.30043024,-0.6978644,-0.5214862,-0.7573886,-0.55017203,-0.3743269,-0.63854355,-0.41282666,-0.65797716,0.5244248,-0.063376166,0.5865247,0.6811222,-0.05413094,-0.6073992,0.5695423,-0.39231524,0.47495878,-0.24781092,0.598706,-0.10979949,-0.84177625,-0.57185775,-0.5402473,-0.24047641,-0.41701567,-0.34531128,-0.42342374,0.5959219,0.8105719,0.5530767,0.011635184,-0.46208274,0.09062577,-0.8425571,0.61562634,-0.743647,-0.3816286,-0.3770045,-0.25402683,0.10528697,0.37577575,0.18837336,0.78725195,-0.54863346,-0.17175213,0.08546114,-0.4000062,0.5127196,0.1705394,0.098346904,-0.524558,0.5472946,0.7583645,0.058748424,0.17296001,-0.5827093,-0.6705372,0.4305609,0.54739314,-0.22344936,0.622115,-0.6003379,-0.35963574,-0.80209523,-0.50109154,-0.7926825,-0.3814545,-0.65801716,0.0007803142,-0.8507204,0.20440271,0.7450006,0.4173894,-0.7414306,0.36000597,0.4557206
tells,-0.7614019,0.26063067,-0.9615779,-0.18141708,-0.19307688,-0.13686454,-0.5653876,0.79466534,-0.38773528,0.3709763,0.39966798,0.20233366,0.10356632,0.5097691,-0.070167996,0.1434401,-0.36200157,-0.12241183,-0.31486017,-0.20365772,-0.77536356,-0.6343347,-0.35126132,-0.5965007,0.53782123,-0.09146266,-0.105590895,-0.6611116,0.8390758,0.46291143,0.59285784,0.34257132,-0.8752324,0.07609535,0.195754,-1.0896918,0.75526786,-0.64189345,0.18441483,-0.28277567,-0.481893,0.2167193,0.13562226,-0.73291206,0.1882452,-0.17955828,0.30106157,-0.14277138,0.8497148,0.49269712,-0.12938464,-0.3765288,-0.16121502,0.17705943,0.34897614,-0.18606919,-0.73457813,-1.2457652,0.3214759,-0.08491053,0.8571846,-0.50586504,0.95943224,-0.46874407,-0.28905502,0.28612497,-0.4359715,0.11267921,0.13739036,0.23946431,-1.0051813,0.5029142,0.22066543,-0.18429217,0.6193889,0.10114843,-0.7191556,-0.18950605,0.5540226,0.8854997,-0.5051418,-0.23404258,-0.70820343,0.12287803,-0.6139101,-0.87275094,-0.07563692,-0.68314195,-0.2242704,-0.07343902,-0.32870448,-0.2967007,0.5147141,-1.1282274,0.48497567,0.09847465
had,0.39610523,0.8177495,-0.6095454,-0.638929,0.061285004,0.87329865,-0.50239426,0.31954396,-0.16672921,0.16060679,0.50888157,0.40846136,0.7912656,0.8707242,0.27937388,0.6127751,-0.32004187,0.4012226,-0.41552967,-0.39119262,-0.07760033,0.5195936,-0.39462715,-0.23551261,0.271613,-0.108989075,-0.6047772,0.34665713,1.145626,0.31915614,0.66168505,0.55174327,-0.3066211,-0.513695,-0.29108268,-0.20389584,0.9160941,-0.2984924,0.5900581,-0.5421803,-0.5242975,-0.73352313,-0.6000589,0.26992327,-0.66995543,0.05737124,0.4757362,0.09325848,0.6000421,0.46398276,0.3833448,0.14216124,0.4860533,0.7195139,0.62766165,-0.14861222,0.13897212,-0.13742311,0.29850414,0.0017857403,0.47060567,-0.6893718,0.21476644,-0.103558436,0.2212681,0.7622311,-0.12696992,0.41720113,0.4832513,0.342922,-0.6666318,0.56481564,0.71355003,0.6220646,-0.5842628,-0.57811123,-0.54447925,0.52297795,0.29653004,0.8622315,-0.18435809,-0.81652564,-0.85934645,0.092523634,-0.5677191,-0.36772206,-0.41988185,0.40533724,0.15690345,-0.7599132,-0.37711626,0.24804923,0.8467977,-0.83117497,1.2699924,0.3927228
off,-0.5468405,0.69398093,-0.18557754,0.06263831,-0.5878782,0.3827299,-0.29860848,-0.03789091,-0.75761247,0.72853327,0.2441431,-0.017344609,-0.38984555,0.47029126,-0.46428925,0.17734984,-0.050436914,-0.09174523,-0.99044484,-0.6687497,-0.36536774,-0.5858355,-0.35777998,-0.47291642,0.09686123,-0.22782016,-0.31758967,-0.3926187,-0.07461212,0.42120248,0.25876972,0.48947042,-0.3078217,-0.6891146,0.51359606,0.32998848,0.35598347,-0.996591,0.39243904,-0.43638355,-0.17874211,-0.6445564,-0.83572423,-0.21654451,-0.105411045,-0.62685776,-0.16756819,0.45090455,0.45824173,0.2720681,0.07511081,-0.32716447,-0.23753458,-0.20085943,0.36777064,-0.5416967,-0.65704113,0.47373176,0.43821087,-0.93777466,1.0543518,-0.4569186,0.5652773,-0.6821133,0.3084979,0.12459925,-0.10869509,0.32729533,0.5824143,0.55689615,0.44096738,0.53755873,0.14551787,0.8498982,0.024950445,0.2573309,-0.2276349,-0.173549,0.28819573,0.4836226,-0.47836694,-0.34643868,-0.8386169,-0.5989607,-0.16739437,0.33204642,-0.6695809,-0.6908377,0.4650556,-0.5136279,-0.2865521,0.48290187,0.36470497,0.20952736,0.21042678,-0.30220175
time,-0.18723467,0.561004,-0.38996443,-0.7938127,-0.20363626,0.7502527,0.20027874,1.1361874,-0.063651174,0.70717907,0.4668724,0.83137417,0.43144166,0.745681,-0.20673203,-0.34945726,-0.3782116,0.34401113,-0.149522,-0.5978897,-0.645857,0.054048143,-0.14091365,0.34422618,0.28906408,-0.4001748,-0.38187647,-0.15130672,-0.08622196,-0.0053970516,0.34372848,0.027730003,0.19127871,-0.94263923,0.7953526,-0.2947172,0.5407729,-0.6504492,0.5016179,-0.13075572,-0.8198315,-0.79375,-0.25783992,-0.5417013,-0.21885318,-0.22583643,0.08767177,0.6401799,0.03426761,-0.19534445,0.7519487,-0.5990881,-0.26266614,-0.068471484,0.4800629,-0.5131875,-0.24972859,0.23641169,0.5220796,-0.69433117,-0.68338585,-0.62812525,-0.2682213,-0.4852759,0.544378,0.6074296,-0.4476296,0.0012911856,0.6026716,-0.064873874,0.18234286,0.7573216,-0.06879157,0.6236733,0.7747021,-0.5867668,-0.41015217,0.8806118,0.05556038,0.54507244,-0.846369,-0.27140647,-0.46729437,-0.5723582,-0.2296566,-0.39928192,-0.71944416,-0.0722907,0.12950411,-0.35756052,-0.88330555,0.97237825,0.40299243,-0.11937077,0.055737734,0.64826655
home,-1.0018744,0.3302894,-0.10228057,-0.2558908,-0.10314304,0.55748546,-0.6419034,0.09559786,-1.0084218,0.58301187,0.58241427,0.81049407,0.36493763,0.14337862,-0.32873923,0.77487683,-0.4155271,0.9485216,-0.4692492,-0.33717376,-0.9108609,-0.5802406,-0.6006744,-0.49614048,0.109289005,-0.8444649,0.18221614,-0.5858192,-0.1986301,0.6906985,0.704715,0.45237696,-0.2454633,-0.113317825,-0.0833839,-0.21917412,0.17815089,-0.072531104,0.20726612,-0.62558824,-0.78068346,0.3984172,-0.5236194,0.40627486,-0.27634138,-0.71749115,-0.20122789,0.2242248,-0.28288975,-0.09885149,0.11509326,-0.042353064,-0.41995615,-0.35422343,-0.01215525,-0.59171087,-0.664132,-0.10278733,0.53275555,-0.46163917,0.26409614,-0.7510294,0.022646457,-0.8402147,0.7761419,0.5282291,-0.7699865,0.596982,-0.11918422,-0.17120732,-0.52249306,0.19676323,0.18046403,0.33633286,0.17863788,-0.4027028,-0.1927019,-0.090962425,0.75847673,1.2646749,-1.032248,0.7106304,-0.41363293,-0.2726486,-0.5527187,-0.66540945,0.09343735,-0.9368305,1.1027207,-0.51029927,-0.71244156,0.059818387,0.7371318,-0.16630097,0.09472281,0.37075165
new,-0.6684016,0.23358595,-0.07468408,-0.43559363,-0.54309046,0.49292338,-0.27440077,-0.019570025,-0.26815605,0.3937365,0.3669855,0.19473383,0.5396579,0.26582116,-0.6180091,0.5726113,-0.41011733,0.7853752,-0.64261043,0.42944032,0.13233142,-0.49889463,-0.7565819,-0.37014967,-0.08730175,-0.16607463,-0.566201,-0.3735066,0.04048571,1.0340947,0.77657044,-0.16714497,-0.19986133,0.07831423,0.13081454,-0.137667,-0.2089984,0.40973157,0.7383615,-0.5853238,-0.5379779,-0.14579892,-0.19905642,0.1683808,-0.81893694,0.36973083,-0.8709918,0.63985956,0.3024326,0.3054814,0.35130516,0.026708648,-0.56605446,-1.3684425,0.21560052,0.21640328,-0.44616097,-0.66883695,0.20308356,-0.40026492,-0.33707657,-0.599074,-0.25794315,-0.43768954,-0.15776104,0.6295724,-0.79702294,0.4708597,0.3550799,0.42505753,0.05860585,0.2973236,0.5190819,0.61340624,0.010374814,-0.3500504,-0.5798907,0.6002206,0.66471356,0.1588592,-0.49912006,-0.19146203,0.28179795,-0.55473423,-0.55888,-0.2746797,-0.26563215,-0.67703456,0.98827887,-0.34571415,-1.0299139,0.45895517,0.17776427,-0.6526737,0.5533802,0.82123184
get,-0.11690538,0.58945704,-0.17463861,-0.02013427,-0.01644615,1.0651412,-0.15455742,-0.26973498,-0.88590765,0.80097294,0.35300747,0.5620789,0.10273424,0.057776526,-0.33909282,1.0179493,-0.60489976,-0.33638245,-0.47517633,-0.30018482,-0.24679486,-0.22517118,0.5112351,-0.4461463,0.78784907,-0.5980967,-0.010495007,-0.24510676,0.52714205,0.502057,0.42068112,0.2892464,-0.2960472,-0.96158373,0.09598225,-0.33191335,0.22414127,-0.40088752,0.0058880597,-0.743518,-0.06414157,-0.52772224,-0.44559592,-0.3878206,0.22889598,-0.6235614,-0.61467916,-0.0526423,-0.15136869,0.4702136,0.35687208,-0.5417543,-0.38737106,-0.5759726,-0.03365153,-0.65716106,-0.41855487,-0.3103504,0.525686,-0.55175513,0.88269544,-0.7559629,0.38564014,-0.48210222,0.5033328,-0.045441747,-0.35060883,0.44425127,0.4745523,0.23106423,-0.29793116,0.20729642,0.07214941,0.48862466,0.37003893,-0.3363573,-0.32965437,0.83914226,0.05052133,0.20104897,-0.6929333,0.5488278,-0.27973107,-0.7135689,-0.06695181,-0.2498464,-0.20948786,-0.47661373,0.24098662,-0.30159235,-0.637546,0.8487057,0.6067122,0.3886198,0.71654594,0.3651836
life,-0.95142543,-0.021889403,-0.39835486,-0.7643471,-0.32188392,0.6300815,-0.44220364,0.34415913,-0.3577958,0.48051265,0.5352809,0.49461913,-0.013677619,0.09263094,-0.5394707,0.20923357,-0.6788168,0.7764819,-0.6897987,-0.37310442,-0.06415348,-0.8114656,-0.54141253,-0.15386781,0.16693151,-0.15187329,-0.4356349,-0.12360287,0.6291862,1.0348153,0.63040274,-0.0040917397,-0.11125546,-0.43871573,0.35247487,0.12611261,0.22066714,0.34398353,0.22872669,-0.06554255,-0.5942415,-0.2862912,-0.2691138,0.17902012,-0.30298162,-0.021069124,-0.78062,0.53585124,0.2109338,0.30283108,0.5076799,-0.099149644,-0.45863286,-0.5500975,1.0605879,-0.22189724,-0.91977787,0.15175891,0.46515626,-0.6021619,0.7262782,-0.14009729,-0.032670327,-0.055056915,0.06944629,0.68558145,-0.30329654,0.44650233,0.48859325,0.49047193,0.22042751,0.2545158,0.43746686,0.47988892,0.25994456,-0.2636546,-0.34132046,0.43926775,0.22462387,-0.029552447,-0.6265691,0.0152629465,-0.37275252,-0.3498674,-0.49498522,-0.38406503,-0.23811772,-0.2520453,0.71473,-0.40876228,-0.41021627,0.24862538,0.8239616,-0.4534536,0.24240772,0.9189654
can,0.58631647,0.6784996,-0.21512412,-0.3266993,0.48576316,0.6545459,-0.8205044,0.2648067,-0.68275994,0.69678193,0.29910955,0.6862792,0.09034209,-0.19271488,-0.30903348,0.9085621,-0.8086412,0.36455095,-0.22511569,-0.64765847,0.41018513,0.38114813,0.3374835,-0.49489033,0.58601576,-0.25285688,-0.15741816,-0.6335722,0.29185745,0.5418006,0.24103317,0.9330871,-0.6101574,-0.5262296,-0.21327457,-0.59940326,0.6766906,-0.18775336,0.27116755,-0.5436268,-0.3661049,-0.6180921,-0.42470863,-0.70796174,0.27671582,-0.95786524,-1.0862634,-0.13132297,0.24278417,0.14295043,0.11048354,-0.5905984,-0.3569759,-0.14745331,0.301663,-0.18640946,-0.96876514,-0.5417056,0.77509075,-0.49893793,0.97106755,-0.6201216,0.76540214,0.036589324,-0.0106879175,-0.029883286,-0.7949077,0.6100619,0.35563874,0.34775075,-0.4670606,0.11690125,0.47277477,-0.46249485,0.020775884,-0.58021605,-0.29311168,0.867923,-0.022767067,0.62944025,-0.0030694902,-0.4309839,-0.7537569,0.21107411,0.46462065,-0.50342524,-0.562203,-0.94644046,0.17633009,-0.3747742,-0.06439335,0.83118105,0.17478508,-0.0801975,0.10372266,0.7667511
only,0.29861933,0.8669659,-0.35022593,-0.85900617,0.14250329,0.16058625,-0.88745356,0.07644958,-0.67612314,0.7006549,0.5742316,0.5972735,0.06272596,-0.027789466,-0.1806913,0.31794596,-0.7131083,0.4598339,-0.4788747,-0.29510045,0.28541458,0.041729033,-0.63449967,-0.27801323,0.11964863,-0.51199776,-0.20572129,-0.35639817,-0.31889904,0.078843884,0.6998068,0.55450416,-0.5511659,-0.41920584,-0.18537194,-0.29417986,0.20312153,-0.2900135,0.64464056,-0.49508977,-0.6315208,-0.60754263,-0.8448443,-0.6059997,-0.13702211,-0.3118397,-0.41365105,0.5894922,0.7898644,0.15945934,0.7439841,-0.6833347,0.57242775,-0.18408196,0.5794852,0.1583301,-0.40366796,-0.81976795,0.5165206,-0.5421137,0.78614867,-0.3771773,-0.11100003,-0.13790266,0.21236578,0.46199408,-0.663971,0.4615087,0.32786807,0.039969727,-0.005002126,0.7606423,1.3409877,-0.46181324,0.54857755,-1.0112343,-0.47991508,0.7248758,-0.2641558,0.5459213,-0.038212962,-0.29706508,-0.1376364,-0.17112423,-0.008644886,-0.782563,-0.5050558,-0.80214643,0.89185023,-0.29615313,-0.32068798,0.9015265,0.3485234,-0.3343477,-0.044070363,0.45568997
other,0.21243432,0.40895098,-0.5816898,-0.56433946,-0.6528964,0.40989506,0.30431554,0.80774117,-1.1638262,0.19199587,-0.20356634,0.668768,-0.4025814,0.15044107,0.47567338,0.7064714,0.22738418,0.7415097,-0.25858384,-0.27912223,-0.46220875,-0.16998771,-0.73941875,-0.51895714,-0.1226393,-0.413495,-0.54948443,0.011928439,0.067393556,-0.025026247,-0.44574553,0.090796754,-0.30878314,-0.697328,0.6452974,-0.6950884,0.41088086,-0.3764873,0.6242506,-0.56362367,-0.14749615,-0.68822443,-0.29188564,-0.77759516,-0.64314127,-0.07266101,0.30855814,-0.06811926,0.5624734,-0.0952476,0.6814337,-0.7749114,-0.52256066,-0.62584484,-0.42505383,-1.0083768,-0.49874878,-0.59153473,-0.31618974,-0.5729805,0.021630228,-0.23946583,0.13855666,-0.24896419,0.23008707,0.8038004,-0.882112,0.22268109,0.5270785,0.6049069,-0.5712203,0.52431166,0.61433357,0.6178582,0.3627299,-1.0450072,1.0099293,0.4366048,0.14201598,-0.041169632,0.09327777,-0.5201337,-0.29439482,-0.51125956,0.13318107,-0.45192757,-0.94799393,-0.0872374,0.24387564,-0.33684623,0.14181884,0.985732,0.5237127,-0.8213935,0.4436223,0.71035504
before,0.73610973,0.9633223,0.2580707,-0.27854112,0.010537691,0.51201874,-0.23204839,0.5980778,-0.546887,0.6206098,-0.11444044,0.5338356,0.5659777,-0.17905104,-0.37416616,0.81305134,-0.7748718,0.507324,-0.4748098,-0.7585958,-0.008489754,0.1884017,-0.18464911,-0.40637097,-0.0058930963,-0.34301916,0.14325535,0.068117924,0.23881885,0.5240327,0.9209891,0.5852436,0.34406364,-0.8759251,0.7519324,-0.5300897,0.1762527,-0.64141136,0.50922155,-0.80663466,-0.44292414,-0.7690573,-0.6821651,0.116160154,-0.49197978,-0.3735551,-0.50933164,0.081263795,0.28633147,0.16491367,0.11536716,-0.36744726,-0.7688916,0.14730239,0.5252873,-0.33800307,-0.5804566,-0.06603849,0.46796122,-0.6682255,0.62843025,-0.5202193,0.5619993,-0.09170907,-0.025109753,-0.22045943,-0.7301938,0.22709505,0.5909071,-0.20383959,0.3834167,0.3677568,0.6341413,0.27511072,0.4823802,0.07930814,-0.39516866,0.516419,0.2494221,1.1340171,-0.27362296,-0.6556377,-0.668394,0.09896332,0.003657028,-0.27894348,-0.2807656,-0.7094517,0.2769652,-0.10794832,-0.48288196,0.52908635,0.40230587,-0.17187087,0.090170115,0.18685758
love,-0.23851028,0.019564144,-0.9285419,-0.33506143,-0.5348492,0.8589623,-0.3553975,0.26965934,-0.44427136,0.11831237,0.1652117,-0.5064105,-0.41484883,-0.38294795,-0.3423733,0.37562454,0.017454624,0.6458567,-0.2831687,-0.50642407,-0.22429827,-1.1869441,-0.40713352,-0.22778934,0.051180303,0.18268013,-0.37707037,-0.24942057,0.6741423,0.96317613,0.0017982125,-0.18712044,0.117222264,-0.61191624,0.8022914,-0.31771204,0.3091959,-0.11397682,0.08253024,0.112112656,-0.48031002,-0.8436023,-0.18588276,-0.34264135,0.26193547,0.21428737,-0.26497862,0.7431961,0.23737173,-0.16894083,0.70323956,-0.62721896,-0.8475374,0.014043838,0.5056182,-0.6715119,-0.8796587,-0.5941193,0.47890866,-0.64932364,-0.6868943,-0.41036743,0.039909184,0.0135038495,-0.25720948,0.033272967,-0.4628483,0.7420817,0.5852026,0.8554594,-0.6674023,0.58198285,0.8494951,0.28663683,-0.18784846,-1.0900099,-0.24698529,0.009247255,0.12504497,0.34983742,-0.47697523,-0.21186338,-0.31589746,-0.3277418,-0.29259154,-0.24413222,-0.32057074,-0.31199196,0.09175238,-0.5767019,-0.17561705,0.9559531,0.6900301,-0.56161994,0.61331946,0.78400755
been,0.3904414,0.7630905,-0.61617076,-0.38643277,-0.22053763,0.88697374,-0.42767623,-0.038966715,-0.3726169,0.089820534,0.60284805,0.3234685,0.69742256,0.80997336,0.08685365,0.3615191,-0.6323667,0.708096,-0.7283896,-0.26755685,0.11101267,0.2561208,-0.3029175,-0.29117543,0.39995122,-0.082327604,-0.00028428435,0.36774755,1.0303417,0.07746138,0.71742415,0.41829258,-0.13409899,-0.28502154,-0.538962,-0.1011012,0.58076143,-0.58447754,0.6447171,-0.7929278,-0.18288453,-0.5039829,-0.82106936,0.17535514,-0.97188896,-0.11005273,0.5800244,0.37148553,0.37240455,0.5278686,0.59299093,0.7163816,0.4454945,0.6595888,0.75151384,-0.4735986,0.680359,-0.3842414,0.41164094,-0.41442475,0.4603777,-0.27218145,0.0756485,-0.15806414,0.6647537,0.9983975,0.6500313,0.14855908,0.71888477,0.92463756,-0.5583504,0.7950317,0.4376996,0.7002001,-0.797727,-0.3605854,-0.86179864,0.6088209,0.21306497,0.9381124,0.22516477,-1.0360153,-0.6210173,0.60133266,-0.6301467,-0.23815812,-0.5065566,0.75453496,0.53523207,-0.77323806,-0.18492267,0.29681715,0.70383525,-0.27643123,1.1209033,0.35342497
family,-0.6572033,0.020713061,-0.1427597,-0.5772725,-0.22565117,-0.19786657,-0.8576738,0.6328631,-0.4252523,0.1877332,0.65321386,0.92560744,0.4248736,0.0939935,-0.12451358,0.43780988,-0.5737006,0.6466373,-0.17241836,-0.26305062,-0.024438918,-0.58810997,-0.5141709,-0.007086426,-0.22891542,-0.45172417,-0.34016785,-0.6897015,0.3970215,0.4752685,0.42373127,0.38044003,-0.07988458,-0.32204705,0.4354403,0.22282591,0.79509413,0.17464122,0.3827259,-0.4510727,-0.46060008,0.16493425,-0.581614,0.06753713,-0.89269274,-0.70988965,-0.23729883,0.25219482,0.39922553,0.12234145,0.14486504,-0.14411362,-0.56531835,-0.64695287,0.56034076,-0.37310132,-0.46010938,-0.45368215,0.47847277,-0.28435135,0.76640874,-0.12164399,-0.09344067,-0.44022906,0.56088734,0.61120296,-0.43834722,0.5666622,0.2610853,0.49981895,-0.44791597,0.28793514,0.35821658,0.12467742,0.3112133,-0.53173155,-0.18799487,-0.0070714653,0.5704307,0.11477479,-0.38593027,-0.31679803,-0.24085507,-0.105760366,-0.44970062,-0.72636527,-0.23616217,-0.32963,0.6376693,-0.768322,-0.17742231,0.43769324,0.8155112,-0.4698584,0.25319842,0.54112774
find,-0.37366915,0.5239562,-0.22899815,-0.24023433,-0.1623354,0.5873642,-1.1014814,-0.07621077,-0.14639038,0.20416644,0.67596936,0.5035666,0.16961867,0.067108154,0.24183793,0.8018737,-0.4258541,-0.17256624,-0.40568653,0.081493214,-0.05295737,-0.03864622,0.008350869,-0.3181105,0.7321791,-0.636317,-0.48171073,-0.36793882,-0.397284,0.09711105,0.41972405,0.5156032,-0.9234108,-0.14665578,0.010258459,-0.3061117,0.13113678,-0.44005656,0.6842088,-0.60846335,-0.36848563,-0.06646992,-0.7670895,-0.29227072,0.31319073,-0.5437099,-0.91506433,0.48484337,0.350738,0.64562976,0.68200827,-0.29442355,-0.18671815,-0.24780743,-0.6761349,-0.05916162,-0.3935914,-0.99030435,0.53503513,-0.47328398,0.3333466,-0.37626714,-0.04667294,-0.828583,0.59976596,-0.082934186,-0.77345955,0.31477284,0.4047673,0.10964754,-0.13700497,0.32837874,0.8450146,0.022228785,0.5453126,-0.9831357,-0.32996657,1.3472738,-0.27780533,0.4380612,-0.37888226,0.09651552,-0.2511721,-0.3665282,0.034943536,-0.48216766,-0.538816,-0.40159214,0.94124776,-0.07596513,-0.6599321,0.5797064,0.33218807,-0.37093112,0.49871078,0.34202388
house,-0.5772383,-0.2376726,-0.29334345,0.11822701,-0.8072027,0.17189433,-0.4240181,0.17113489,-0.023026519,0.50774944,0.3848262,0.38410705,0.3786283,0.3706971,-0.5256938,0.20832407,-0.32251838,0.5263529,-0.5165793,-0.6547187,-0.5192521,-0.28187987,-0.7149155,0.15562043,0.041677237,-0.72631013,-0.54445577,-0.15922207,0.053423945,0.65505207,0.45985967,0.7719588,0.21963905,-0.04315635,0.5007312,-0.59122074,0.59237397,-0.035748884,0.13914752,-0.6540454,-0.4594715,-0.55018634,-0.47541428,0.02331762,-0.12115385,-0.8695164,-0.5769054,0.66544956,0.07429477,0.45053175,0.3806156,-0.14535427,-0.63490415,-0.46279162,0.1047928,-0.37664923,-0.29570532,-0.4845426,0.46699673,-0.25458688,0.45891824,-0.2763354,-0.15419656,-0.8564855,0.8000169,0.12221746,-0.50312203,0.19098431,0.20977151,0.015756657,-0.46751267,0.03356357,0.3465595,0.39475706,0.48573202,-0.012218891,-0.31357294,0.5374806,1.1086049,0.5950403,-0.5501486,0.005964406,-0.48471445,-0.17169861,-0.30499145,-0.26428622,-0.1295077,-0.7578727,0.7466551,-0.51545715,-0.64787173,0.14050014,0.45240775,-0.3106171,0.38845348,0.58826244
also,-0.63091165,0.33926266,-0.64439565,-0.55216277,-0.37377962,0.8850203,-0.78454983,0.40386474,-0.33798432,-0.011964053,0.49132925,0.22932413,0.59274364,0.9042907,0.3735937,0.4811356,-0.17897367,-0.19254586,-0.12105208,-0.3142832,-0.4501244,-0.05590449,-0.54815865,-0.21637645,0.48756188,-0.24352038,-0.37494093,-0.45001414,0.9073281,0.31197628,0.32287186,0.43822342,-0.47292206,-0.14611344,0.30638745,-0.4923636,0.5017234,-0.56240547,0.5281588,-0.124481276,-0.31052914,-0.4047268,0.067387186,-0.6508436,-0.08081247,-0.1472517,-0.28594348,0.50358564,0.6356355,0.6515103,0.5718666,0.25900224,-0.22797827,0.20818983,0.70387673,-0.2732681,-0.41959077,-0.5151045,0.13923573,-0.046687096,0.70619583,-0.153785,0.690656,-0.44183636,0.2599888,0.2938992,-0.29940104,0.4329515,0.21903586,0.36141577,-0.8038565,0.48227295,0.78736377,0.17796706,0.09076954,-0.46051395,-0.38786608,0.27504492,0.39738786,0.40644652,-0.12847103,-0.8351917,-0.49944475,0.14940377,-0.6219147,-0.55724525,-0.7858027,-0.49934456,0.36713964,-0.16259414,-0.6442992,-0.1701397,0.45307943,-0.7453046,0.58749044,0.5617094
however,-0.22373986,0.23651917,-0.50870526,-0.36401695,0.1773049,0.58850884,-0.2994798,0.49704406,-0.4195732,0.50786865,0.5034597,0.26725852,0.8727062,-0.2017757,0.060013555,0.35432988,-0.33165205,0.3147415,-0.5349804,-0.29791558,-0.6083083,-0.08685396,-0.39021364,-0.41917625,0.15696657,-0.03098829,-0.171664,-0.24190208,0.28929332,0.5040597,0.12755015,0.30666953,-0.022226542,-0.7800454,0.8346307,-0.5969324,0.2892752,-0.7554002,0.14892718,-0.46016315,-0.5247961,-0.33137697,-0.20783283,-0.4708191,-0.39295387,-0.29003066,-0.49448067,0.8537166,0.66997874,0.09219906,0.41137365,-0.49887386,-0.7332537,-0.11088787,0.647592,-0.19473366,-0.71488595,-0.32956275,0.622482,-0.4553295,0.57518756,-0.325261,0.45320243,-0.47134295,0.19982278,0.26921892,-0.4513803,0.863657,0.49567455,-0.44549906,0.043340288,0.13591437,0.5923151,-0.040842578,0.32461053,-0.15282907,-0.29050267,0.81560385,0.50380445,0.46062446,-0.8245964,-0.38733184,-0.5426278,-0.5218657,-0.062324695,-0.42293915,-0.36938652,-0.52296585,0.55985224,0.05895348,-0.5820068,0.3430091,0.4831767,-0.7388735,0.5448553,0.4488893
so,0.2871641,0.5761142,-0.1032257,-0.32512227,0.2342987,0.5614388,-0.49549517,0.73066956,-0.28539568,0.48921314,0.5129437,0.91342443,0.48669776,0.24621528,-0.3338349,0.6355176,-0.07481383,0.9089041,-0.32231778,-0.83066076,-0.20188278,0.07152361,0.08606399,-0.39862627,0.6392025,-0.2224719,-0.36172742,-0.46798676,0.5405747,0.5859774,-0.0059097707,0.46499848,-0.45377332,-0.6762346,0.04401709,-0.58035904,0.493653,-0.48565102,0.114385724,-0.8375342,-0.6573734,-0.22548461,-0.57052666,-0.35400113,-0.51126033,-0.81557846,-0.2719941,-0.24935326,0.15503713,-0.14497846,0.39763135,-0.5160638,-0.95016325,-0.059274256,0.2457552,-0.23928884,-0.69196784,-0.31068802,0.73708546,-0.9346024,0.62138855,-0.25102437,0.60019195,0.4549578,-0.09576047,-0.028119177,-0.050233617,0.629877,0.18465646,0.31664458,-0.13046916,-0.026641145,0.34628513,-0.11901833,0.4273193,-0.41751236,-0.48861313,0.8274735,0.12920508,0.30726057,-0.47151166,-0.43402535,-0.7850089,0.123395085,-0.0015603006,-0.22248435,-0.5367764,-0.6236631,0.009929389,-0.45683342,-0.6734611,0.4717179,-0.109993875,-0.34568426,0.2163536,0.59884655
being,0.2355576,0.7989299,-0.6478864,-0.32007036,-0.2701493,0.8104191,-0.68504596,0.35517234,-0.35942602,0.98118466,-0.025631472,0.2790286,0.11740255,-0.08155094,0.25059924,0.1534203,-0.5642352,0.2743785,0.2315417,-0.7164259,-0.47036412,-0.28693426,-0.5744143,-0.5020064,0.21403319,-0.18999064,-0.09237428,-0.2749655,0.7308649,0.044453174,0.45236576,0.3502351,0.4530751,-0.81735814,0.6470242,-0.5136186,-0.3894563,-0.6662828,0.51854527,-0.3734295,-0.43031624,-0.68354076,-0.45859915,-0.33374423,-0.7300552,-0.5492345,-0.20988789,0.2295786,0.2682212,0.3869348,-0.15775928,-0.7401817,-0.03421679,-0.7471316,0.9125325,-0.3596713,-0.11889369,-0.33678964,0.5147613,-0.43371448,0.7612903,0.7940351,0.84572196,-0.22981358,0.60225713,0.377011,0.13444212,-0.18060732,-0.039452154,0.5877328,-0.2738521,0.17515542,0.44221178,0.4035408,0.838207,0.18731128,-0.68422586,0.18547413,0.2629195,0.6223179,-0.049454927,-0.56072277,-0.06915702,0.08407879,-0.7125441,-0.5733292,-0.6089058,-0.2987221,0.3792634,0.031528775,-0.6692482,0.39377433,0.25427985,0.5581866,0.368076,0.44199982
finds,-0.937214,0.5478157,-0.06292026,-0.022703677,-0.044094965,0.8153322,-0.6262297,0.24310225,0.46925527,0.35212338,0.79149806,-0.0059300214,0.27945784,0.83642054,0.1901883,0.5656086,0.20113687,0.015731066,-0.6067507,-0.07251879,-0.35725164,-0.51762867,-0.8374928,-0.17279772,0.53143114,-0.9756714,-0.48228255,-0.49643624,0.13281852,0.08703241,0.23628089,0.10640027,-0.36790138,-0.52996355,0.44797984,-0.63558084,0.4190284,-0.26679665,0.89980966,-0.49295533,-0.74491835,-0.39580435,-0.1467393,0.01059182,0.3253372,-0.4927937,-0.32036725,0.338207,0.51210135,0.67438316,0.50758904,-0.2605462,-0.33637184,0.1512857,-0.14704855,-0.23785953,-0.25177923,-0.6381937,0.11864901,-0.33533555,0.46386543,-0.064253986,0.20465818,-0.2411073,0.016295321,-0.569148,-0.24080257,0.6498936,0.6349033,-0.32729748,-0.19439362,-0.080187015,1.1577511,0.31939813,0.55577123,-0.83066726,-0.5814343,0.67200655,0.32725433,0.35776466,-0.9584327,-0.4830202,-0.3621792,-0.1345649,-0.81860954,-0.5127077,-0.0920472,-0.76830894,0.8230094,-0.056785196,-0.73472095,-0.45612237,-0.11233118,-1.0023286,0.4517868,0.38022593
mother,-0.49072528,-0.02243058,-1.0567997,-0.61831707,-0.3098867,0.4481357,-0.8012999,0.5334356,-0.1780619,0.65019894,0.22753917,0.39817616,0.36064875,0.19467133,-0.10225341,0.6482967,-0.28738827,0.3524927,-0.15037712,-0.44317538,-0.45405358,-0.34748742,-0.5606161,-0.012766596,0.055386573,-0.13147293,-0.57955825,-0.3065925,0.78026104,0.56488234,0.68536353,0.021442302,-0.16864662,-0.15066282,0.44994742,-0.27662325,0.6395577,0.13596761,0.4745531,0.08425741,-0.6042235,-0.112824254,-0.2825876,0.025360733,-0.5538795,-0.26544285,-0.39388555,0.4830239,0.4205413,0.56466055,-0.064327836,-0.5482763,0.08443795,-0.12678918,0.21536174,0.031163596,-0.634785,-0.6529597,0.7800876,0.40935326,0.95418924,-0.007985264,-0.16110936,-0.0573171,0.34414983,0.5112707,-0.17627765,0.35424215,0.5676253,0.34016162,-0.7298396,0.75688946,0.8158945,-0.003993474,0.3915391,-0.1370084,-0.32134044,-0.26555157,0.5884745,0.8878199,-0.9001076,-0.14958982,-0.37104642,0.117232494,-0.6272863,-0.18572223,0.4432792,-0.19774738,0.6274737,-0.5214199,-0.56328416,0.017309226,0.8878165,-0.6433021,0.7159098,0.13954309
later,-0.97571445,0.49532902,-0.5495507,-0.66240996,-0.16726045,0.40106314,-0.26590407,0.60675,-0.54186374,-0.066873685,0.6207944,0.61564416,0.8357016,0.90560293,-0.15527421,0.29853973,-0.4127841,0.6404629,-0.65397835,0.014791399,-0.7959395,-0.30714658,-0.11300538,-0.7395475,0.4241803,-0.6325473,-0.30812082,-0.003844779,0.51999474,0.20755132,0.26555067,-0.00042560697,-0.56511974,-0.68535054,0.35246685,-0.58596945,-0.27527142,-0.61794317,0.59555745,-0.7946738,-0.16508941,-0.5387089,0.06392321,-0.18649815,-0.34941632,0.19325876,-0.416385,0.0061443895,0.31573164,0.45004255,0.14162545,-0.5360348,-0.5214908,0.7077015,-0.3822124,-0.5003778,-0.7309755,-0.14792243,-0.05898291,-0.3921517,-0.80825543,-0.4788298,0.45356458,-0.17429097,0.5720901,-0.0072678626,-0.7245393,0.32800078,0.057961695,-0.4847546,0.051418185,0.6734786,1.0096833,0.6107738,0.9652686,-0.33003438,-0.64037967,0.29858786,-0.25304368,0.5443245,-0.4488011,-0.14408782,-0.38369355,-0.5872879,-0.79347146,-0.64479375,-0.08779618,-0.46808645,0.41821003,-0.284754,-1.0148116,-0.27983803,-0.19903643,-0.59027624,0.1669489,-0.14337899
over,-0.70519996,0.50599396,-0.3416459,-0.7329497,-0.43406534,0.11292945,-0.24286744,0.28198847,-0.6238257,0.6101616,0.2784028,0.652778,-0.3720841,0.60411566,-0.63146377,0.2634124,-0.6416911,-0.029229507,-0.83734465,-0.18657506,-0.36470068,-0.9401208,-0.46652436,0.047087625,0.37061998,-0.4002116,-0.16091567,-0.30282924,0.26237136,0.31366694,0.45739713,0.3418926,-0.10092123,-0.64136124,0.72332096,-0.028504238,0.12451841,-0.63076776,0.062969506,-0.40565243,-0.28217304,-0.28808352,-1.0804572,-0.22987668,-0.1164424,-0.5585213,-0.10252458,-0.0046345294,0.4555023,0.63498366,-0.042475373,-0.32230735,-0.32313162,-0.20371056,0.11257762,-0.38574374,-0.1627333,0.049104616,0.3555272,-0.741436,0.43612155,-0.5430565,-0.0031461844,-0.7220295,0.42709956,0.5138262,-0.22287458,0.023865618,0.48955142,0.9041189,0.34702498,0.75013065,0.0025660396,0.7788855,0.40438056,-0.47290596,-0.44260812,0.50658464,0.16505308,0.20353189,-0.44492346,-0.45689952,-0.42521352,-0.3209743,0.10390432,0.11815245,-0.6180761,-0.2917171,0.1647957,-0.035668045,-0.1823495,-0.13241461,-0.015288174,-0.09326176,0.4611715,0.46063602
day,-0.622167,0.11733697,-0.275466,-0.48905823,0.09448798,0.15515302,0.2618177,0.950982,-0.4058202,0.7135887,0.42484784,0.5402191,0.42417738,0.3641419,-0.4512002,0.29461604,-0.48380077,0.68139887,-0.98140675,-0.9200643,-0.6991687,0.13451073,-0.587853,-0.35267502,-0.26123765,-0.34563115,-0.45534873,-0.110213175,-0.45573252,0.11925854,0.44479287,0.4459095,-0.4168114,-0.6888804,0.71338165,-0.6073446,0.9088011,-0.60108715,0.431512,-0.5295762,-0.21709895,-0.5999995,-0.61654973,-0.46334225,-0.7116325,-0.52092046,-0.35625675,0.4413895,0.54057795,-0.31103492,0.2966511,-0.33921614,0.25692916,0.0333768,0.39859697,-0.61966723,-0.453938,-0.49941534,0.76701134,-0.25671667,0.06639525,-0.35260037,-0.010733988,-0.44432852,0.42030907,0.3497883,-0.4889641,0.4719845,-0.29052424,-0.8831104,0.100492,0.2371555,0.66482973,-0.07172816,0.46937478,-0.022937411,-0.6328107,0.4467204,0.040998966,-0.3159895,-0.2934138,0.36312735,-0.47903442,-0.50077254,-0.65393335,-0.26537135,0.57442415,-0.77316463,0.84913915,-0.0590432,0.2148194,0.7785293,0.45759553,-0.99388534,-0.5384489,0.8830016
there,-0.5478598,0.31237382,-0.55261946,-0.24152115,-0.44727197,1.123403,-0.74199367,0.5063586,-0.35688066,0.3400378,-0.063156836,0.3696669,0.3653323,0.6056305,0.23739749,0.5071298,-0.6723343,0.19347888,-0.2149449,-0.43555292,-0.18098113,0.026916802,-0.5828554,-0.5909336,0.52763724,-0.35591733,-0.48510224,-0.32532364,0.6859784,0.19250867,-0.051830754,0.27128863,-0.1184662,-0.08885223,0.15118462,-0.7452322,0.43013343,-0.6601361,0.29628542,-0.54706585,0.09424958,-0.59575355,-0.31614387,-0.732841,-0.14807698,-0.40428948,-0.36698812,0.39862853,0.64484215,0.38205826,0.65478843,0.07856434,-0.16190735,0.5791625,0.07702857,-0.5810212,-0.6188679,-0.34330675,0.63428706,-0.56921315,0.5111813,-0.20220846,0.44231898,-0.21938819,0.26561558,0.09338211,-0.35601825,0.81207836,-0.22621949,-0.22759104,-0.32688573,0.27252394,0.9289166,0.12947267,0.5653243,-0.6552443,-0.3067431,0.85010326,0.25968024,0.3585145,-0.17883396,-0.06570616,-0.37537855,0.16034275,-0.30266553,-0.9899194,-0.81084716,-0.70751786,0.6529239,0.11142062,-0.47664136,0.3830273,0.1823746,-0.3778898,0.2046019,0.77143395
goes,-0.40614152,0.44699892,-0.024197191,0.12598902,-0.660056,0.0647333,0.020175427,0.15769531,-0.3472509,0.30404893,0.6960697,0.43320453,-0.27693278,0.86054164,-0.10186944,-0.15883678,-0.11704403,0.19307938,-0.7268058,-0.6092378,-0.95580554,-0.3145489,-0.4009943,-0.6515203,0.3252796,-0.83221185,-0.4945624,-0.19581418,0.20565729,0.45804548,0.52765924,0.6741557,-0.47065687,-0.6890191,0.21901487,-0.4291154,0.387605,-0.8178854,-0.09675023,-0.30449432,-0.5877114,-0.21310622,-0.42906082,-0.22481863,0.36077008,-0.54935914,-0.07743719,0.39666,0.12041909,0.2796797,0.09368065,-0.24474826,-0.20101517,-0.4932802,0.3446827,-0.5398612,-0.5483571,0.084509656,0.48708925,-0.519696,0.7224343,-0.3786499,0.5916718,-0.52239174,0.2563901,0.37344497,-0.59345305,0.474715,0.44066152,-0.15793109,-0.1300231,0.29302153,0.15514946,0.21777706,0.64135617,0.32858476,-0.058948293,0.33832288,0.4437462,0.69667304,-0.7805259,0.5081202,-0.72754824,-0.46803385,-0.5984947,0.13030839,-0.1029056,-0.8364301,0.49917847,-0.34667617,-0.17234108,0.25048035,0.5088315,-0.14229162,0.4928364,0.37140816
go,-0.42873764,0.39900824,-0.22100598,0.19030556,-0.3102764,0.23536214,-0.55544597,-0.07363024,-0.77693087,0.13415803,0.4459754,0.6696051,0.0036202595,0.13238318,-0.14877717,0.32590488,-0.3900491,0.2772066,-0.5243755,-0.23328406,-0.4502632,-0.30977827,0.5262977,-0.41175604,0.6216679,-0.4244899,0.009828433,-0.35304242,-0.025632277,0.4635644,0.234948,0.6421358,-0.8052312,-0.63624996,-0.099176794,-0.29931402,0.38959092,-0.8140167,0.023874745,-0.74317956,-0.57043934,-0.07674855,-0.39292768,-0.43832394,0.16566417,-0.76482576,-0.38891232,0.039055496,-0.118316695,0.17158526,-0.055668443,-0.5784726,-0.584728,-0.24947691,-0.15219802,-0.13274117,-0.37006333,-0.2713188,0.41918135,-0.75472116,0.63735163,-0.679471,0.58519566,-0.44841826,0.60200673,0.5420726,-0.6476015,0.8863542,0.5692507,0.51096934,-0.029708296,0.13340753,-0.030485526,0.38774565,0.071475804,-0.21618372,-0.077944055,0.54328996,0.23669282,0.56013006,-0.6559229,0.16959113,-0.77951825,-0.27470082,-0.07579291,-0.70929825,-0.40174702,-0.7033869,0.23833509,-0.21329337,-0.21335512,0.56037664,0.43000606,0.2458146,0.6735478,0.12320271
police,-0.7385056,0.8254863,-0.06834543,-0.57523084,-0.33580998,-0.28978562,-0.26528805,-0.17226446,-0.80177957,0.21319467,0.310076,0.37306798,0.6103127,0.26775637,-0.13696922,0.12612686,0.09890732,0.34256575,0.17174187,-0.45238504,-0.66009593,-0.2883106,-0.07607081,0.050620496,0.16795196,-0.7049788,0.14568464,-0.4686898,-0.34244037,-0.19834843,0.22351763,-0.105588436,-0.03542515,0.31925744,0.13099737,-0.8818519,0.68762183,-0.85098475,0.4259213,-0.6026669,0.23177709,-0.2236756,-0.4160222,-0.25317904,-0.43359482,-0.2942683,-0.47437745,0.36113173,0.2035957,0.8630344,0.07717608,-0.80236363,-0.6277482,-0.66141456,0.18047462,-1.0129986,-0.056625813,-0.8421235,0.53896636,-0.2547382,0.51941484,-0.4163359,1.1208616,-0.45290494,0.64264935,0.36775303,-0.30957103,-0.612817,-0.02412191,0.18069673,-0.115536444,0.47191733,0.023973644,0.5086225,0.2866993,-0.5969535,-0.6355034,0.75130343,0.92270076,-0.31958252,0.086741105,-0.60573745,-0.11556932,-0.25145364,-0.6328235,-0.5192576,-0.7860786,-0.16999069,0.42322558,-0.10106076,-0.14722551,0.6120997,0.49234647,-0.3579902,0.06359263,-0.45142525
takes,-0.9442364,0.7608337,-0.5568106,-0.25025216,-0.6128044,0.56879365,-0.5433867,0.215449,-0.5666454,0.42083484,0.2903258,0.15889259,-0.325565,1.0726602,-0.5259163,0.33357307,-0.38993174,-0.13375467,-0.37688142,-0.40121177,-0.6213073,-0.9715293,-0.4058267,0.13385776,0.15750456,-0.45549878,-0.3477068,-0.8035028,0.1123181,0.49740964,0.717289,0.3968809,-0.22934335,-0.4185313,0.57232547,-0.30614656,0.066221386,-0.6491864,0.15135849,0.13853043,-0.629217,-0.03518164,-0.5743998,-0.06554049,0.09926387,-0.5383875,-0.33279184,0.46584946,0.11035855,0.4108971,-0.12964442,-0.62093556,-0.19929323,-0.3491403,0.28067464,-0.5437538,-0.6351457,0.57778174,0.24970672,-0.22122012,0.28108817,-0.19100924,0.21465795,-0.7188958,0.23821,0.3058415,-0.13158786,0.30502722,0.4934492,0.56711435,0.06529538,0.6721349,0.15020795,0.51282245,0.25787666,-0.16517979,-0.29782867,-0.41485965,0.22867863,0.47607413,-0.47634095,-0.5231832,-0.6704023,-0.43356654,-0.34371284,0.01911261,-0.1430596,-0.7787416,0.54955745,-0.35328665,-0.26973087,-0.08061713,0.3475383,-0.05156772,0.2576374,0.7253789
does,0.58371663,0.7943436,-0.66748047,-0.71938825,-0.0113264695,0.3421297,-0.7127251,0.28407115,0.027967803,0.2883625,0.43643177,0.24298671,0.5723826,0.12375158,-0.23058304,0.38560104,-0.13235365,0.549179,-0.062232167,-0.093203366,0.24972995,-0.6485457,0.16756052,-0.5132679,0.6755334,0.3779341,0.9417387,-0.3138122,0.091049165,0.749496,0.1069627,0.707644,-0.23945327,-1.1271683,0.22519386,-0.78065944,0.51461303,-0.65383595,-0.41905186,0.028430492,-0.328299,-0.0345587,-0.49389368,-0.4934982,-0.4061067,-0.5023102,-0.42255834,0.620078,0.11474559,0.07380022,0.484819,-0.45954338,-0.59752357,0.5378878,0.55065036,-0.24277088,-0.056507617,-0.51457405,0.59530455,0.12117675,0.58374834,-0.63134754,0.646492,0.46351236,-0.05919375,0.50289655,-0.38863236,0.8116138,0.9452762,0.48967448,-0.16890505,0.6501388,0.5150714,-1.0857987,0.3847766,-0.8599597,-0.9800048,0.73436534,0.12712595,0.8226888,-0.23798025,-0.26681232,-0.40845883,-0.053853497,0.39583215,-0.4089674,0.30503878,-0.51681554,-0.17147905,-0.5076481,-0.5995145,0.5134753,0.389162,-0.2819569,0.74370146,0.6858382
himself,-0.4128031,0.91086614,0.26866663,0.010864049,0.21329407,0.70196915,-0.6324175,0.28132436,0.30261487,0.8113307,0.6562841,-0.09629673,-0.05198267,0.6583805,0.034528285,0.21009558,0.33371395,-0.38306272,-0.62301314,-0.62953925,-0.0071031004,-0.39501077,-0.6674349,-0.52001727,0.6320273,-0.96815574,-0.01825285,-0.47492975,0.5210835,-0.2215716,0.2973481,0.13860393,-0.17746924,-0.98518705,0.3147171,-0.6888059,-0.09385577,-0.50912535,0.9715165,-0.051339783,-0.68734086,-0.32917863,-0.11640252,-0.38297608,-0.16893244,-0.5518283,-0.6792176,-0.304338,0.1226006,0.58903813,0.40196043,-0.48588878,-0.33761704,-0.35718542,0.5541353,-0.33862463,-0.3586756,-0.2006554,0.22986503,-0.19737503,0.54699683,0.17914835,0.66060907,-0.1583465,0.07773035,-0.19091757,-0.31073132,0.62143135,0.65785336,0.44768327,-0.25908872,-0.4448547,0.5261292,0.2947682,0.22668037,-0.5253179,-0.28775796,0.56818366,0.49588358,0.2989692,-0.62315786,-0.5747756,-0.4697039,-0.20917495,-0.74491066,-0.4389567,-0.45282155,-0.6538265,0.4603863,-0.47751167,-0.5286664,0.13867871,-0.07561734,-0.2000954,0.3849215,0.28166178
down,-0.42089903,0.78408605,-0.09617512,0.04977741,-0.4961956,0.25123855,0.6742384,-0.095770225,-0.61985177,0.65312636,0.7802508,-0.5140575,0.06029074,0.47193646,-0.6633399,0.31134793,-0.13190064,0.17925233,-0.6884611,-0.26367638,-0.6641662,-0.47913134,0.096908644,-0.58202755,0.206106,-0.46266517,0.114846796,-0.45118868,0.30341625,0.2849521,0.106463015,0.5387318,0.14787012,-0.50006986,0.44622064,-0.41893667,-0.15133402,-1.0128075,0.309842,-0.6291057,0.27975702,-0.21280728,-0.80855054,-0.29810047,-0.29994622,-0.65018725,-0.44662035,0.8173155,0.23651922,0.23696133,0.11003369,-0.31768793,-0.27006274,-0.4902166,0.4200452,-0.6673516,0.14880723,0.27332655,0.15789929,-0.7023884,0.4713221,-0.14762819,0.793298,-0.47246045,0.45520392,-0.5011531,-0.36521405,0.5162093,0.4534794,0.41859475,-0.31259945,0.06542808,1.0719414,0.4321043,0.2768395,-0.2262976,-0.4120938,-0.5386983,0.5999998,0.6441835,-0.42675388,0.39329055,-0.34367442,-0.52065885,-0.3639266,-0.5087832,-0.54255235,-0.10820745,0.93244725,-0.7560928,0.4175267,0.22610316,0.028733373,0.3093958,0.19194183,-0.020502642
',-0.6546,-0.6869796,-0.34531865,-0.1844604,-0.4757644,-0.17522776,-0.23492855,0.6240068,-0.35045308,0.6273382,0.45241195,0.3969705,0.42976865,0.14974582,-0.20370188,0.22361423,-0.25728342,0.8222564,0.10917336,-0.6119636,-0.6199889,-0.4074383,-0.7521571,-0.06894764,-0.050293,0.00074157864,-0.19225812,-0.48773,0.49504375,0.051228322,0.23218408,0.11176512,-0.1406407,-0.34611604,0.49351475,-0.047166824,0.1234974,-0.117209256,0.24168217,-0.016891062,-0.4959684,-0.48478943,-0.13309036,-0.4970668,-0.36337376,-0.31967062,-0.6955257,0.22265731,0.68342185,0.5340768,0.29405043,-0.64861375,-0.38349453,-0.4888283,-0.15591347,0.10881907,-0.114381224,-0.23932743,0.4344405,0.34819785,0.43957084,-0.19463862,-0.03538935,-0.6242883,0.6732032,0.7463867,-0.7052832,0.51268435,-0.0597208,0.5166867,-0.56787217,0.116996124,-0.09545928,0.5160603,0.077837974,-0.19308457,-0.20380315,0.5343812,1.0554783,0.2670995,-0.7485907,-0.12279798,-0.13300991,-0.3792589,-0.45228067,-0.37970898,0.10245529,-0.8248377,0.090867884,-0.40920484,-0.17478332,0.2168854,0.67068565,-0.29224148,0.3291983,0.5685211
away,-0.5976242,0.98580265,-0.08419828,-0.47051847,0.22715592,1.0731994,0.10479234,0.12639478,-1.0456738,0.7103585,-0.05660693,0.084967166,-0.03711354,0.5009681,-0.36803594,0.780728,-0.60822797,0.049104795,-0.5317943,-0.12678447,-0.14252827,-0.10164197,-0.36448365,-0.16395456,0.16763802,-0.59028625,-0.101268426,-0.32025656,-0.012529526,0.05099666,0.4905886,-0.05925247,0.09328338,-0.6123854,0.412674,0.69447887,-0.21050629,-0.7642112,0.3753388,-0.73424125,-0.13766125,-0.7063783,-0.5349434,-0.4348262,-0.063285455,-0.6710614,0.094849885,-0.08163099,0.18573081,0.0018579662,-0.28027186,-0.19224457,-0.5880939,-0.41472274,0.37367883,-0.8561684,-0.6156416,0.30236793,0.45645684,-0.82897556,0.7687011,-0.63211167,0.86223817,-0.55221003,0.42369995,-0.19293955,0.3156,-0.28278363,-0.036983408,0.5882926,-0.052376352,0.48192516,0.13139305,0.18925275,-0.24110185,-0.24791574,-0.7182454,0.14466503,0.6097049,1.0244472,-0.82956076,-0.4549248,-0.05024058,-0.19776338,-0.35159388,-0.2849486,-0.21638218,-0.8615426,0.752028,-0.65157616,-0.570849,0.24503456,0.37307894,0.27566966,0.32699373,-0.3660173
